{"learner":{"attributes":{"scikit_learn":"{\"_estimator_type\": \"regressor\"}"},"feature_names":["month","year","lag_1","lag_2","lag_3","lag_4","lag_5","lag_6","lag_7","lag_8","lag_9","lag_10","lag_11","lag_12"],"feature_types":["int","int","float","float","float","float","float","float","float","float","float","float","float","float"],"gradient_booster":{"model":{"gbtree_model_param":{"num_parallel_tree":"1","num_trees":"500"},"iteration_indptr":[0,1,2,3,4,5,6,7,8,9,10,11,12,13,14,15,16,17,18,19,20,21,22,23,24,25,26,27,28,29,30,31,32,33,34,35,36,37,38,39,40,41,42,43,44,45,46,47,48,49,50,51,52,53,54,55,56,57,58,59,60,61,62,63,64,65,66,67,68,69,70,71,72,73,74,75,76,77,78,79,80,81,82,83,84,85,86,87,88,89,90,91,92,93,94,95,96,97,98,99,100,101,102,103,104,105,106,107,108,109,110,111,112,113,114,115,116,117,118,119,120,121,122,123,124,125,126,127,128,129,130,131,132,133,134,135,136,137,138,139,140,141,142,143,144,145,146,147,148,149,150,151,152,153,154,155,156,157,158,159,160,161,162,163,164,165,166,167,168,169,170,171,172,173,174,175,176,177,178,179,180,181,182,183,184,185,186,187,188,189,190,191,192,193,194,195,196,197,198,199,200,201,202,203,204,205,206,207,208,209,210,211,212,213,214,215,216,217,218,219,220,221,222,223,224,225,226,227,228,229,230,231,232,233,234,235,236,237,238,239,240,241,242,243,244,245,246,247,248,249,250,251,252,253,254,255,256,257,258,259,260,261,262,263,264,265,266,267,268,269,270,271,272,273,274,275,276,277,278,279,280,281,282,283,284,285,286,287,288,289,290,291,292,293,294,295,296,297,298,299,300,301,302,303,304,305,306,307,308,309,310,311,312,313,314,315,316,317,318,319,320,321,322,323,324,325,326,327,328,329,330,331,332,333,334,335,336,337,338,339,340,341,342,343,344,345,346,347,348,349,350,351,352,353,354,355,356,357,358,359,360,361,362,363,364,365,366,367,368,369,370,371,372,373,374,375,376,377,378,379,380,381,382,383,384,385,386,387,388,389,390,391,392,393,394,395,396,397,398,399,400,401,402,403,404,405,406,407,408,409,410,411,412,413,414,415,416,417,418,419,420,421,422,423,424,425,426,427,428,429,430,431,432,433,434,435,436,437,438,439,440,441,442,443,444,445,446,447,448,449,450,451,452,453,454,455,456,457,458,459,460,461,462,463,464,465,466,467,468,469,470,471,472,473,474,475,476,477,478,479,480,481,482,483,484,485,486,487,488,489,490,491,492,493,494,495,496,497,498,499,500],"tree_info":[0,0,0,0,0,0,0,0,0,0,0,0,0,0,0,0,0,0,0,0,0,0,0,0,0,0,0,0,0,0,0,0,0,0,0,0,0,0,0,0,0,0,0,0,0,0,0,0,0,0,0,0,0,0,0,0,0,0,0,0,0,0,0,0,0,0,0,0,0,0,0,0,0,0,0,0,0,0,0,0,0,0,0,0,0,0,0,0,0,0,0,0,0,0,0,0,0,0,0,0,0,0,0,0,0,0,0,0,0,0,0,0,0,0,0,0,0,0,0,0,0,0,0,0,0,0,0,0,0,0,0,0,0,0,0,0,0,0,0,0,0,0,0,0,0,0,0,0,0,0,0,0,0,0,0,0,0,0,0,0,0,0,0,0,0,0,0,0,0,0,0,0,0,0,0,0,0,0,0,0,0,0,0,0,0,0,0,0,0,0,0,0,0,0,0,0,0,0,0,0,0,0,0,0,0,0,0,0,0,0,0,0,0,0,0,0,0,0,0,0,0,0,0,0,0,0,0,0,0,0,0,0,0,0,0,0,0,0,0,0,0,0,0,0,0,0,0,0,0,0,0,0,0,0,0,0,0,0,0,0,0,0,0,0,0,0,0,0,0,0,0,0,0,0,0,0,0,0,0,0,0,0,0,0,0,0,0,0,0,0,0,0,0,0,0,0,0,0,0,0,0,0,0,0,0,0,0,0,0,0,0,0,0,0,0,0,0,0,0,0,0,0,0,0,0,0,0,0,0,0,0,0,0,0,0,0,0,0,0,0,0,0,0,0,0,0,0,0,0,0,0,0,0,0,0,0,0,0,0,0,0,0,0,0,0,0,0,0,0,0,0,0,0,0,0,0,0,0,0,0,0,0,0,0,0,0,0,0,0,0,0,0,0,0,0,0,0,0,0,0,0,0,0,0,0,0,0,0,0,0,0,0,0,0,0,0,0,0,0,0,0,0,0,0,0,0,0,0,0,0,0,0,0,0,0,0,0,0,0,0,0,0,0,0,0,0,0,0,0,0,0,0,0,0,0,0,0,0,0,0,0,0,0,0,0,0,0,0,0,0,0,0,0,0,0,0,0,0,0,0,0,0,0,0,0,0,0,0,0,0,0,0,0,0,0,0,0,0,0,0],"trees":[{"base_weights":[-0E0,-1.2335453E-1,1.6986527E-1,-1.5087415E-2,-3.1991962E-2,6.8915494E-2,2.0239852E-1,-5.4502226E-3,-0E0,2.0508613E-3,8.544096E-3,-0E0,2.038183E-2],"categories":[],"categories_nodes":[],"categories_segments":[],"categories_sizes":[],"default_left":[0,0,0,0,0,0,0,0,0,0,0,0,0],"id":0,"left_children":[1,3,5,-1,7,9,11,-1,-1,-1,-1,-1,-1],"loss_changes":[6.076558E0,3.992827E-1,3.5959578E-1,0E0,3.2299403E-2,1.3251036E-2,1.0941267E-2,0E0,0E0,0E0,0E0,0E0,0E0],"parents":[2147483647,0,0,1,1,2,2,4,4,5,5,6,6],"right_children":[2,4,6,-1,8,10,12,-1,-1,-1,-1,-1,-1],"split_conditions":[2.3918629E-1,1.1535304E-1,3.3414742E-1,-1.5087415E-2,1.9198279E-1,2.532119E-1,2.5700048E-1,-5.4502226E-3,-0E0,2.0508613E-3,8.544096E-3,-0E0,2.038183E-2],"split_indices":[2,2,3,0,2,4,6,0,0,0,0,0,0],"split_type":[0,0,0,0,0,0,0,0,0,0,0,0,0],"sum_hessian":[2.88E2,1.67E2,1.21E2,1.27E2,4E1,3.1E1,9E1,2.4E1,1.6E1,1E1,2.1E1,1E0,8.9E1],"tree_param":{"num_deleted":"0","num_feature":"14","num_nodes":"13","size_leaf_vector":"1"}},{"base_weights":[-0E0,-1.1117057E-1,1.5335774E-1,-1.3590462E-2,-2.880159E-2,6.968065E-2,1.8641233E-2,-4.9270014E-3,-0E0,2.7875733E-3,8.956731E-3],"categories":[],"categories_nodes":[],"categories_segments":[],"categories_sizes":[],"default_left":[0,0,0,0,0,0,0,0,0,0,0],"id":1,"left_children":[1,3,5,-1,7,9,-1,-1,-1,-1,-1],"loss_changes":[4.9455633E0,3.218844E-1,2.9884267E-1,0E0,2.6677564E-2,1.6519278E-2,0E0,0E0,0E0,0E0,0E0],"parents":[2147483647,0,0,1,1,2,2,4,4,5,5],"right_children":[2,4,6,-1,8,10,-1,-1,-1,-1,-1],"split_conditions":[2.3918629E-1,1.1535304E-1,3.3639678E-1,-1.3590462E-2,1.9198279E-1,2.6823083E-1,1.8641233E-2,-4.9270014E-3,-0E0,2.7875733E-3,8.956731E-3],"split_indices":[2,2,7,0,2,3,0,0,0,0,0],"split_type":[0,0,0,0,0,0,0,0,0,0,0],"sum_hessian":[2.88E2,1.67E2,1.21E2,1.27E2,4E1,3.6E1,8.5E1,2.4E1,1.6E1,1.4E1,2.2E1],"tree_param":{"num_deleted":"0","num_feature":"14","num_nodes":"11","size_leaf_vector":"1"}},{"base_weights":[-0E0,-1.0019297E-1,1.3843496E-1,-1.2206155E-2,-2.4662012E-2,6.543103E-2,1.6949114E-1,-4.322357E-3,-0E0,2.5273997E-3,8.2908E-3,1.089123E-2,1.7963273E-2],"categories":[],"categories_nodes":[],"categories_segments":[],"categories_sizes":[],"default_left":[0,0,0,0,0,0,0,0,0,0,0,0,0],"id":2,"left_children":[1,3,5,-1,7,9,11,-1,-1,-1,-1,-1,-1],"loss_changes":[4.0245275E0,2.59812E-1,2.4201894E-1,0E0,2.0510057E-2,1.4457509E-2,3.1883717E-3,0E0,0E0,0E0,0E0,0E0,0E0],"parents":[2147483647,0,0,1,1,2,2,4,4,5,5,6,6],"right_children":[2,4,6,-1,8,10,12,-1,-1,-1,-1,-1,-1],"split_conditions":[2.3918629E-1,1.15940005E-1,3.42603E-1,-1.2206155E-2,1.9198279E-1,2.6823083E-1,3.842283E-1,-4.322357E-3,-0E0,2.5273997E-3,8.2908E-3,1.089123E-2,1.7963273E-2],"split_indices":[2,2,6,0,2,3,2,0,0,0,0,0,0],"split_type":[0,0,0,0,0,0,0,0,0,0,0,0,0],"sum_hessian":[2.88E2,1.67E2,1.21E2,1.28E2,3.9E1,3.8E1,8.3E1,2.3E1,1.6E1,1.4E1,2.4E1,1.5E1,6.8E1],"tree_param":{"num_deleted":"0","num_feature":"14","num_nodes":"13","size_leaf_vector":"1"}},{"base_weights":[-0E0,-9.03013E-2,1.2516257E-1,-1.1070503E-2,-2.4073323E-2,5.2096773E-2,1.5054542E-1,-4.3929564E-3,-0E0,1.3812397E-3,6.3306415E-3,1.1529509E-2,1.6842209E-2],"categories":[],"categories_nodes":[],"categories_segments":[],"categories_sizes":[],"default_left":[0,0,0,0,0,0,0,0,0,0,0,0,0],"id":3,"left_children":[1,3,5,-1,7,9,11,-1,-1,-1,-1,-1,-1],"loss_changes":[3.281138E0,2.1087503E-1,1.9815636E-1,0E0,2.00455E-2,6.004937E-3,8.2941055E-3,0E0,0E0,0E0,0E0,0E0,0E0],"parents":[2147483647,0,0,1,1,2,2,4,4,5,5,6,6],"right_children":[2,4,6,-1,8,10,12,-1,-1,-1,-1,-1,-1],"split_conditions":[2.3918629E-1,1.0982408E-1,3.3639678E-1,-1.1070503E-2,1.7267041E-1,2.532119E-1,4.034791E-1,-4.3929564E-3,-0E0,1.3812397E-3,6.3306415E-3,1.1529509E-2,1.6842209E-2],"split_indices":[2,2,4,0,3,4,5,0,0,0,0,0,0],"split_type":[0,0,0,0,0,0,0,0,0,0,0,0,0],"sum_hessian":[2.88E2,1.67E2,1.21E2,1.26E2,4.1E1,3.3E1,8.8E1,2.2E1,1.9E1,1E1,2.3E1,3.4E1,5.4E1],"tree_param":{"num_deleted":"0","num_feature":"14","num_nodes":"13","size_leaf_vector":"1"}},{"base_weights":[1.03265615E-4,-8.142315E-2,1.13187976E-1,-9.852474E-2,-1.7693367E-2,4.394322E-2,1.3519506E-1,-1.1153481E-2,-7.792336E-3,-3.8246312E-3,-0E0,4.910129E-3,-0E0,9.361428E-3,1.471999E-2],"categories":[],"categories_nodes":[],"categories_segments":[],"categories_sizes":[],"default_left":[0,0,0,0,0,0,0,0,0,0,0,0,0,0,0],"id":4,"left_children":[1,3,5,7,9,11,13,-1,-1,-1,-1,-1,-1,-1,-1],"loss_changes":[2.6767967E0,1.6973495E-1,1.6205788E-1,7.4744225E-3,1.2971166E-2,3.3030808E-3,7.5632334E-3,0E0,0E0,0E0,0E0,0E0,0E0,0E0,0E0],"parents":[2147483647,0,0,1,1,2,2,3,3,4,4,5,5,6,6],"right_children":[2,4,6,8,10,12,14,-1,-1,-1,-1,-1,-1,-1,-1],"split_conditions":[2.3918629E-1,1.2873831E-1,3.3414742E-1,7.097764E-2,1.6029488E-1,1.1E1,3.946664E-1,-1.1153481E-2,-7.792336E-3,-3.8246312E-3,-0E0,4.910129E-3,-0E0,9.361428E-3,1.471999E-2],"split_indices":[2,2,3,2,3,0,3,0,0,0,0,0,0,0,0],"split_type":[0,0,0,0,0,0,0,0,0,0,0,0,0,0,0],"sum_hessian":[2.88E2,1.67E2,1.21E2,1.3E2,3.7E1,3.1E1,9E1,7.4E1,5.6E1,1.6E1,2.1E1,2.6E1,5E0,2.4E1,6.6E1],"tree_param":{"num_deleted":"0","num_feature":"14","num_nodes":"15","size_leaf_vector":"1"}},{"base_weights":[1.0003108E-4,-7.3548615E-2,1.0233669E-1,-8.7531775E-2,-1.0661982E-2,4.5369226E-2,1.2449319E-1,-1.0233488E-2,-7.068407E-3,-2.3795702E-3,-0E0,1.070792E-3,5.5775633E-3,4.742729E-4,1.2609745E-2],"categories":[],"categories_nodes":[],"categories_segments":[],"categories_sizes":[],"default_left":[0,0,0,0,0,0,0,0,0,0,0,0,0,0,0],"id":5,"left_children":[1,3,5,7,9,11,13,-1,-1,-1,-1,-1,-1,-1,-1],"loss_changes":[2.1864574E0,1.3697892E-1,1.3135397E-1,9.382725E-3,6.4408686E-3,6.100282E-3,2.8395653E-3,0E0,0E0,0E0,0E0,0E0,0E0,0E0,0E0],"parents":[2147483647,0,0,1,1,2,2,3,3,4,4,5,5,6,6],"right_children":[2,4,6,8,10,12,14,-1,-1,-1,-1,-1,-1,-1,-1],"split_conditions":[2.3918629E-1,1.23324275E-1,3.3639678E-1,6.6688284E-2,1.8041588E-1,2.3959266E-1,2.6833344E-1,-1.0233488E-2,-7.068407E-3,-2.3795702E-3,-0E0,1.070792E-3,5.5775633E-3,4.742729E-4,1.2609745E-2],"split_indices":[2,8,7,2,6,6,11,0,0,0,0,0,0,0,0],"split_type":[0,0,0,0,0,0,0,0,0,0,0,0,0,0,0],"sum_hessian":[2.88E2,1.67E2,1.21E2,1.35E2,3.2E1,3.6E1,8.5E1,6.6E1,6.9E1,1.7E1,1.5E1,1.1E1,2.5E1,2E0,8.3E1],"tree_param":{"num_deleted":"0","num_feature":"14","num_nodes":"15","size_leaf_vector":"1"}},{"base_weights":[1.1666684E-4,-6.638443E-2,9.2510656E-2,-8.137465E-3,-1.7095305E-2,3.5176717E-2,1.1055654E-1,-3.5361652E-3,-0E0,-0E0,3.8548007E-3,8.711609E-3,1.2851961E-2],"categories":[],"categories_nodes":[],"categories_segments":[],"categories_sizes":[],"default_left":[0,0,0,0,0,0,0,0,0,0,0,0,0],"id":6,"left_children":[1,3,5,-1,7,9,11,-1,-1,-1,-1,-1,-1],"loss_changes":[1.7844571E0,1.1288953E-1,1.0776377E-1,0E0,1.14840055E-2,2.0097308E-3,5.5570602E-3,0E0,0E0,0E0,0E0,0E0,0E0],"parents":[2147483647,0,0,1,1,2,2,4,4,5,5,6,6],"right_children":[2,4,6,-1,8,10,12,-1,-1,-1,-1,-1,-1],"split_conditions":[2.3918629E-1,1.0982408E-1,3.253922E-1,-8.137465E-3,1.382652E-1,2.394572E-1,4.2642823E-1,-3.5361652E-3,-0E0,-0E0,3.8548007E-3,8.711609E-3,1.2851961E-2],"split_indices":[2,2,4,0,13,3,2,0,0,0,0,0,0],"split_type":[0,0,0,0,0,0,0,0,0,0,0,0,0],"sum_hessian":[2.88E2,1.67E2,1.21E2,1.26E2,4.1E1,3.1E1,9E1,1.8E1,2.3E1,4E0,2.7E1,4.4E1,4.6E1],"tree_param":{"num_deleted":"0","num_feature":"14","num_nodes":"13","size_leaf_vector":"1"}},{"base_weights":[1.5262257E-4,-6.389059E-2,7.864665E-2,-7.469687E-3,-2.6161086E-2,2.685286E-2,1.0001917E-1,-3.067407E-3,-0E0,-0E0,3.0187957E-3,8.578053E-3,1.2847039E-2],"categories":[],"categories_nodes":[],"categories_segments":[],"categories_sizes":[],"default_left":[0,0,0,0,0,0,0,0,0,0,0,0,0],"id":7,"left_children":[1,3,5,-1,7,9,11,-1,-1,-1,-1,-1,-1],"loss_changes":[1.4593062E0,5.2786827E-2,1.2963927E-1,0E0,4.35796E-3,3.2431409E-3,4.4193864E-3,0E0,0E0,0E0,0E0,0E0,0E0],"parents":[2147483647,0,0,1,1,2,2,4,4,5,5,6,6],"right_children":[2,4,6,-1,8,10,12,-1,-1,-1,-1,-1,-1],"split_conditions":[2.1608941E-1,9.4357744E-2,3.3414742E-1,-7.469687E-3,1.9570982E-1,2.1741521E-1,4.524435E-1,-3.067407E-3,-0E0,-0E0,3.0187957E-3,8.578053E-3,1.2847039E-2],"split_indices":[2,2,3,0,4,3,3,0,0,0,0,0,0],"split_type":[0,0,0,0,0,0,0,0,0,0,0,0,0],"sum_hessian":[2.88E2,1.58E2,1.3E2,1.2E2,3.8E1,4E1,9E1,3.2E1,6E0,5E0,3.5E1,6.5E1,2.5E1],"tree_param":{"num_deleted":"0","num_feature":"14","num_nodes":"13","size_leaf_vector":"1"}},{"base_weights":[1.8760939E-4,-5.7635754E-2,7.113209E-2,-6.728892E-2,-2.3644242E-2,2.2958236E-2,9.021711E-2,-7.687992E-3,-5.256372E-3,-3.2221668E-3,-1.1055823E-4,-0E0,2.5379618E-3,6.5508164E-3,1.0314594E-2],"categories":[],"categories_nodes":[],"categories_segments":[],"categories_sizes":[],"default_left":[0,0,0,0,0,0,0,0,0,0,0,0,0,0,0],"id":8,"left_children":[1,3,5,7,9,11,13,-1,-1,-1,-1,-1,-1,-1,-1],"loss_changes":[1.1909992E0,4.1487634E-2,1.07052505E-1,1.03354454E-4,4.1712746E-3,2.7494002E-3,5.7678223E-3,0E0,0E0,0E0,0E0,0E0,0E0,0E0,0E0],"parents":[2147483647,0,0,1,1,2,2,3,3,4,4,5,5,6,6],"right_children":[2,4,6,8,10,12,14,-1,-1,-1,-1,-1,-1,-1,-1],"split_conditions":[2.1608941E-1,9.4357744E-2,3.2510078E-1,6.6688284E-2,1.382652E-1,2E0,4.034791E-1,-7.687992E-3,-5.256372E-3,-3.2221668E-3,-1.1055823E-4,-0E0,2.5379618E-3,6.5508164E-3,1.0314594E-2],"split_indices":[2,2,4,2,13,0,5,0,0,0,0,0,0,0,0],"split_type":[0,0,0,0,0,0,0,0,0,0,0,0,0,0,0],"sum_hessian":[2.88E2,1.58E2,1.3E2,1.2E2,3.8E1,3.9E1,9.1E1,6.6E1,5.4E1,2.4E1,1.4E1,3E0,3.6E1,3.6E1,5.5E1],"tree_param":{"num_deleted":"0","num_feature":"14","num_nodes":"15","size_leaf_vector":"1"}},{"base_weights":[1.0329431E-4,-4.6923965E-2,7.150537E-2,-5.726408E-2,-0E0,4.29562E-2,9.025093E-3,-6.860898E-3,-4.2982316E-3,-8.780188E-4,2.058388E-4,-0E0,4.5802407E-3],"categories":[],"categories_nodes":[],"categories_segments":[],"categories_sizes":[],"default_left":[0,0,0,0,0,0,0,0,0,0,0,0,0],"id":9,"left_children":[1,3,5,7,9,11,-1,-1,-1,-1,-1,-1,-1],"loss_changes":[9.7623026E-1,7.924023E-2,4.488218E-2,8.737445E-3,1.2411146E-3,4.2398274E-3,0E0,0E0,0E0,0E0,0E0,0E0,0E0],"parents":[2147483647,0,0,1,1,2,2,3,3,4,4,5,5],"right_children":[2,4,6,8,10,12,-1,-1,-1,-1,-1,-1,-1],"split_conditions":[2.5406566E-1,1.23324275E-1,3.946664E-1,2E3,1.6003628E-1,2.532119E-1,9.025093E-3,-6.860898E-3,-4.2982316E-3,-8.780188E-4,2.058388E-4,-0E0,4.5802407E-3],"split_indices":[2,13,3,1,13,4,0,0,0,0,0,0,0],"split_type":[0,0,0,0,0,0,0,0,0,0,0,0,0],"sum_hessian":[2.88E2,1.73E2,1.15E2,1.4E2,3.3E1,4.9E1,6.6E1,7.2E1,6.8E1,1.4E1,1.9E1,4E0,4.5E1],"tree_param":{"num_deleted":"0","num_feature":"14","num_nodes":"13","size_leaf_vector":"1"}},{"base_weights":[7.865337E-5,-4.650072E-2,5.898718E-2,-5.496205E-2,-1.7956289E-2,1.9524692E-2,7.475954E-2,-6.846357E-3,-4.593672E-3,-2.4092463E-3,-0E0,-0E0,2.2586812E-3,6.279239E-3,9.79559E-3],"categories":[],"categories_nodes":[],"categories_segments":[],"categories_sizes":[],"default_left":[0,0,0,0,0,0,0,0,0,0,0,0,0,0,0],"id":10,"left_children":[1,3,5,7,9,11,13,-1,-1,-1,-1,-1,-1,-1,-1],"loss_changes":[7.9698515E-1,3.0606568E-2,6.940362E-2,1.5953183E-4,4.1938415E-3,2.0970348E-3,2.7577877E-3,0E0,0E0,0E0,0E0,0E0,0E0,0E0,0E0],"parents":[2147483647,0,0,1,1,2,2,3,3,4,4,5,5,6,6],"right_children":[2,4,6,8,10,12,14,-1,-1,-1,-1,-1,-1,-1,-1],"split_conditions":[1.7860983E-1,9.4357744E-2,3.3414742E-1,4.873043E-2,1.9198279E-1,3E0,4.524435E-1,-6.846357E-3,-4.593672E-3,-2.4092463E-3,-0E0,-0E0,2.2586812E-3,6.279239E-3,9.79559E-3],"split_indices":[13,2,3,13,2,0,3,0,0,0,0,0,0,0,0],"split_type":[0,0,0,0,0,0,0,0,0,0,0,0,0,0,0],"sum_hessian":[2.88E2,1.6E2,1.28E2,1.2E2,4E1,3.9E1,8.9E1,4.1E1,7.9E1,2.9E1,1.1E1,6E0,3.3E1,6.4E1,2.5E1],"tree_param":{"num_deleted":"0","num_feature":"14","num_nodes":"15","size_leaf_vector":"1"}},{"base_weights":[5.1567233E-5,-3.8412414E-2,5.8609165E-2,-4.6466216E-2,-0E0,3.255367E-2,7.3256254E-2,-5.5943923E-3,-3.4041665E-3,-3.4477757E-4,1.5312676E-4,3.7426872E-3,-0E0,-0E0,7.4407025E-3],"categories":[],"categories_nodes":[],"categories_segments":[],"categories_sizes":[],"default_left":[0,0,0,0,0,0,0,0,0,0,0,0,0,0,0],"id":11,"left_children":[1,3,5,7,9,11,13,-1,-1,-1,-1,-1,-1,-1,-1],"loss_changes":[6.5520257E-1,5.201325E-2,3.130418E-2,5.9361756E-3,2.4914055E-4,5.881943E-3,6.5283775E-3,0E0,0E0,0E0,0E0,0E0,0E0,0E0,0E0],"parents":[2147483647,0,0,1,1,2,2,3,3,4,4,5,5,6,6],"right_children":[2,4,6,8,10,12,14,-1,-1,-1,-1,-1,-1,-1,-1],"split_conditions":[2.5406566E-1,1.2980552E-1,3.8824674E-1,7.097764E-2,2.0104997E-1,1.1E1,2.8678796E-1,-5.5943923E-3,-3.4041665E-3,-3.4477757E-4,1.5312676E-4,3.7426872E-3,-0E0,-0E0,7.4407025E-3],"split_indices":[2,13,2,2,8,0,12,0,0,0,0,0,0,0,0],"split_type":[0,0,0,0,0,0,0,0,0,0,0,0,0,0,0],"sum_hessian":[2.88E2,1.73E2,1.15E2,1.42E2,3.1E1,4.5E1,7E1,7.4E1,6.8E1,1.7E1,1.4E1,3.8E1,7E0,1E0,6.9E1],"tree_param":{"num_deleted":"0","num_feature":"14","num_nodes":"15","size_leaf_vector":"1"}},{"base_weights":[2.9263998E-5,-3.7585903E-2,4.909417E-2,-4.273658E-2,-4.9559507E-3,1.9256428E-2,6.294853E-2,-6.115717E-3,-3.6804029E-3,-8.697171E-4,-0E0,2.4674018E-3,-0E0,2.8328889E-3,6.7479894E-3],"categories":[],"categories_nodes":[],"categories_segments":[],"categories_sizes":[],"default_left":[0,0,0,0,0,0,0,0,0,0,0,0,0,0,0],"id":12,"left_children":[1,3,5,7,9,11,13,-1,-1,-1,-1,-1,-1,-1,-1],"loss_changes":[5.3637004E-1,2.2413746E-2,4.306701E-2,3.0338466E-3,6.472957E-4,3.774995E-3,1.6849041E-3,0E0,0E0,0E0,0E0,0E0,0E0,0E0,0E0],"parents":[2147483647,0,0,1,1,2,2,3,3,4,4,5,5,6,6],"right_children":[2,4,6,8,10,12,14,-1,-1,-1,-1,-1,-1,-1,-1],"split_conditions":[2.1161945E-1,1.23324275E-1,3.42603E-1,4.6587802E-2,2.1161945E-1,3.122532E-1,3E0,-6.115717E-3,-3.6804029E-3,-8.697171E-4,-0E0,2.4674018E-3,-0E0,2.8328889E-3,6.7479894E-3],"split_indices":[8,10,6,2,2,6,0,0,0,0,0,0,0,0,0],"split_type":[0,0,0,0,0,0,0,0,0,0,0,0,0,0,0],"sum_hessian":[2.88E2,1.62E2,1.26E2,1.37E2,2.5E1,4.3E1,8.3E1,2.7E1,1.1E2,1.6E1,9E0,3.2E1,1.1E1,1.3E1,7E1],"tree_param":{"num_deleted":"0","num_feature":"14","num_nodes":"15","size_leaf_vector":"1"}},{"base_weights":[1.452483E-5,-3.0197896E-2,5.036199E-2,-3.839045E-2,-0E0,3.5581764E-2,6.728906E-2,-4.63611E-3,-2.779858E-3,-6.098243E-4,1.1302104E-4,-0E0,3.6855084E-3,-0E0,6.905721E-3],"categories":[],"categories_nodes":[],"categories_segments":[],"categories_sizes":[],"default_left":[0,0,0,0,0,0,0,0,0,0,0,0,0,0,0],"id":13,"left_children":[1,3,5,7,9,11,13,-1,-1,-1,-1,-1,-1,-1,-1],"loss_changes":[4.4314057E-1,4.219143E-2,1.4839083E-2,3.114611E-3,5.9231766E-4,1.8281564E-3,6.561905E-3,0E0,0E0,0E0,0E0,0E0,0E0,0E0,0E0],"parents":[2147483647,0,0,1,1,2,2,3,3,4,4,5,5,6,6],"right_children":[2,4,6,8,10,12,14,-1,-1,-1,-1,-1,-1,-1,-1],"split_conditions":[2.6334628E-1,1.382652E-1,4.2642823E-1,2E3,1.5856682E-1,2.0024957E-1,2.8678796E-1,-4.63611E-3,-2.779858E-3,-6.098243E-4,1.1302104E-4,-0E0,3.6855084E-3,-0E0,6.905721E-3],"split_indices":[3,8,2,1,13,13,12,0,0,0,0,0,0,0,0],"split_type":[0,0,0,0,0,0,0,0,0,0,0,0,0,0,0],"sum_hessian":[2.88E2,1.79E2,1.09E2,1.39E2,4E1,6.3E1,4.6E1,7.2E1,6.7E1,1.4E1,2.6E1,3E0,6E1,1E0,4.5E1],"tree_param":{"num_deleted":"0","num_feature":"14","num_nodes":"15","size_leaf_vector":"1"}},{"base_weights":[-0E0,-2.7277622E-2,4.5526642E-2,-3.4100514E-2,-0E0,2.8622434E-2,5.795871E-2,-3.959385E-3,-2.0871286E-3,-0E0,1.14428716E-4,3.0001202E-3,-0E0,-0E0,5.9200167E-3],"categories":[],"categories_nodes":[],"categories_segments":[],"categories_sizes":[],"default_left":[0,0,0,0,0,0,0,0,0,0,0,0,0,0,0],"id":14,"left_children":[1,3,5,7,9,11,13,-1,-1,-1,-1,-1,-1,-1,-1],"loss_changes":[3.6192662E-1,3.4680158E-2,1.2799934E-2,3.6646575E-3,3.1425436E-5,2.4029277E-3,5.076751E-3,0E0,0E0,0E0,0E0,0E0,0E0,0E0,0E0],"parents":[2147483647,0,0,1,1,2,2,3,3,4,4,5,5,6,6],"right_children":[2,4,6,8,10,12,14,-1,-1,-1,-1,-1,-1,-1,-1],"split_conditions":[2.6334628E-1,1.382652E-1,4.016279E-1,7.980675E-2,2.1161945E-1,4.4191507E-1,2.8678796E-1,-3.959385E-3,-2.0871286E-3,-0E0,1.14428716E-4,3.0001202E-3,-0E0,-0E0,5.9200167E-3],"split_indices":[3,13,4,2,2,10,12,0,0,0,0,0,0,0,0],"split_type":[0,0,0,0,0,0,0,0,0,0,0,0,0,0,0],"sum_hessian":[2.88E2,1.79E2,1.09E2,1.44E2,3.5E1,5.1E1,5.8E1,9.5E1,4.9E1,1.2E1,2.3E1,4.9E1,2E0,1E0,5.7E1],"tree_param":{"num_deleted":"0","num_feature":"14","num_nodes":"15","size_leaf_vector":"1"}},{"base_weights":[-0E0,-2.4695419E-2,4.1222423E-2,-3.0843766E-2,-0E0,3.2340985E-2,6.482627E-2,-4.2825895E-3,-2.4392225E-3,1.6315233E-4,-5.0076115E-4,-0E0,3.4079961E-3,1.4043612E-3,7.435889E-3],"categories":[],"categories_nodes":[],"categories_segments":[],"categories_sizes":[],"default_left":[0,0,0,0,0,0,0,0,0,0,0,0,0,0,0],"id":15,"left_children":[1,3,5,7,9,11,13,-1,-1,-1,-1,-1,-1,-1,-1],"loss_changes":[2.966972E-1,2.816853E-2,1.1246696E-2,3.4425259E-3,2.1056063E-4,2.8492436E-3,2.701871E-3,0E0,0E0,0E0,0E0,0E0,0E0,0E0,0E0],"parents":[2147483647,0,0,1,1,2,2,3,3,4,4,5,5,6,6],"right_children":[2,4,6,8,10,12,14,-1,-1,-1,-1,-1,-1,-1,-1],"split_conditions":[2.6769722E-1,1.5133032E-1,4.524435E-1,4.9481582E-2,3.1695715E-1,2.5700048E-1,3E0,-4.2825895E-3,-2.4392225E-3,1.6315233E-4,-5.0076115E-4,-0E0,3.4079961E-3,1.4043612E-3,7.435889E-3],"split_indices":[2,8,3,13,8,6,0,0,0,0,0,0,0,0,0],"split_type":[0,0,0,0,0,0,0,0,0,0,0,0,0,0,0],"sum_hessian":[2.88E2,1.79E2,1.09E2,1.44E2,3.5E1,8.4E1,2.5E1,4.3E1,1.01E2,3.1E1,4E0,6E0,7.8E1,6E0,1.9E1],"tree_param":{"num_deleted":"0","num_feature":"14","num_nodes":"15","size_leaf_vector":"1"}},{"base_weights":[4.2156234E-6,-2.2320652E-2,3.744487E-2,-2.7727775E-2,-0E0,2.5255011E-2,5.1119465E-2,-3.3880647E-3,-1.8148025E-3,2.7100145E-4,-4.6069967E-4,6.58735E-5,2.8460678E-3,-0E0,5.261019E-3],"categories":[],"categories_nodes":[],"categories_segments":[],"categories_sizes":[],"default_left":[0,0,0,0,0,0,0,0,0,0,0,0,0,0,0],"id":16,"left_children":[1,3,5,7,9,11,13,-1,-1,-1,-1,-1,-1,-1,-1],"loss_changes":[2.4391109E-1,2.3339853E-2,9.407595E-3,2.8468966E-3,3.264474E-4,2.1155477E-3,4.499875E-3,0E0,0E0,0E0,0E0,0E0,0E0,0E0,0E0],"parents":[2147483647,0,0,1,1,2,2,3,3,4,4,5,5,6,6],"right_children":[2,4,6,8,10,12,14,-1,-1,-1,-1,-1,-1,-1,-1],"split_conditions":[2.6769722E-1,1.572328E-1,4.2642823E-1,7.3772915E-2,3.1695715E-1,3E0,2.8678796E-1,-3.3880647E-3,-1.8148025E-3,2.7100145E-4,-4.6069967E-4,6.58735E-5,2.8460678E-3,-0E0,5.261019E-3],"split_indices":[2,9,2,4,8,0,12,0,0,0,0,0,0,0,0],"split_type":[0,0,0,0,0,0,0,0,0,0,0,0,0,0,0],"sum_hessian":[2.88E2,1.79E2,1.09E2,1.46E2,3.3E1,6.3E1,4.6E1,8.1E1,6.5E1,2.9E1,4E0,1.1E1,5.2E1,1E0,4.5E1],"tree_param":{"num_deleted":"0","num_feature":"14","num_nodes":"15","size_leaf_vector":"1"}},{"base_weights":[7.376835E-6,-2.301559E-2,2.9927012E-2,-2.7426178E-2,-7.379953E-3,8.32085E-3,3.8517073E-2,-4.1586654E-3,-2.2849238E-3,-9.141084E-4,-0E0,1.26307E-3,-0E0,2.9606393E-3,5.478076E-3],"categories":[],"categories_nodes":[],"categories_segments":[],"categories_sizes":[],"default_left":[0,0,0,0,0,0,0,0,0,0,0,0,0,0,0],"id":17,"left_children":[1,3,5,7,9,11,13,-1,-1,-1,-1,-1,-1,-1,-1],"loss_changes":[2.0045431E-1,7.4888915E-3,1.87523E-2,4.483983E-4,7.206632E-4,2.1068733E-3,2.6924312E-3,0E0,0E0,0E0,0E0,0E0,0E0,0E0,0E0],"parents":[2147483647,0,0,1,1,2,2,3,3,4,4,5,5,6,6],"right_children":[2,4,6,8,10,12,14,-1,-1,-1,-1,-1,-1,-1,-1],"split_conditions":[1.8041588E-1,2.004E3,3.3639678E-1,2.9253857E-2,1.7267041E-1,3.0160165E-1,4.524435E-1,-4.1586654E-3,-2.2849238E-3,-9.141084E-4,-0E0,1.26307E-3,-0E0,2.9606393E-3,5.478076E-3],"split_indices":[13,1,4,13,11,6,3,0,0,0,0,0,0,0,0],"split_type":[0,0,0,0,0,0,0,0,0,0,0,0,0,0,0],"sum_hessian":[2.88E2,1.61E2,1.27E2,1.2E2,4.1E1,4E1,8.7E1,2.2E1,9.8E1,3.5E1,6E0,3E1,1E1,6.2E1,2.5E1],"tree_param":{"num_deleted":"0","num_feature":"14","num_nodes":"15","size_leaf_vector":"1"}},{"base_weights":[-0E0,-1.8363355E-2,3.0877616E-2,-2.2870593E-2,-0E0,1.8306473E-2,4.0491022E-2,-3.7185736E-3,-1.8930028E-3,1.8115503E-4,-4.4910476E-4,1.9881532E-3,-0E0,1.5769394E-4,4.4771344E-3],"categories":[],"categories_nodes":[],"categories_segments":[],"categories_sizes":[],"default_left":[0,0,0,0,0,0,0,0,0,0,0,0,0,0,0],"id":18,"left_children":[1,3,5,7,9,11,13,-1,-1,-1,-1,-1,-1,-1,-1],"loss_changes":[1.655753E-1,1.5669044E-2,6.6726655E-3,1.9203275E-3,2.025807E-4,1.2716353E-3,4.7887713E-3,0E0,0E0,0E0,0E0,0E0,0E0,0E0,0E0],"parents":[2147483647,0,0,1,1,2,2,3,3,4,4,5,5,6,6],"right_children":[2,4,6,8,10,12,14,-1,-1,-1,-1,-1,-1,-1,-1],"split_conditions":[2.6769722E-1,1.6029488E-1,4.034791E-1,4.408807E-2,3.1695715E-1,3.99161E-1,3E0,-3.7185736E-3,-1.8930028E-3,1.8115503E-4,-4.4910476E-4,1.9881532E-3,-0E0,1.5769394E-4,4.4771344E-3],"split_indices":[2,3,5,2,8,5,0,0,0,0,0,0,0,0,0],"split_type":[0,0,0,0,0,0,0,0,0,0,0,0,0,0,0],"sum_hessian":[2.88E2,1.79E2,1.09E2,1.45E2,3.4E1,5.3E1,5.6E1,2.4E1,1.21E2,3E1,4E0,4.8E1,5E0,8E0,4.8E1],"tree_param":{"num_deleted":"0","num_feature":"14","num_nodes":"15","size_leaf_vector":"1"}},{"base_weights":[-0E0,-1.6650802E-2,2.810313E-2,-2.1018803E-2,-0E0,2.1021891E-2,4.6326283E-2,-2.9444334E-3,-1.5915054E-3,-0E0,2.3358928E-3,4.7225854E-4,5.3571267E-3],"categories":[],"categories_nodes":[],"categories_segments":[],"categories_sizes":[],"default_left":[0,0,0,0,0,0,0,0,0,0,0,0,0],"id":19,"left_children":[1,3,5,7,-1,9,11,-1,-1,-1,-1,-1,-1],"loss_changes":[1.3678129E-1,1.2829345E-2,6.485991E-3,1.1017099E-3,0E0,2.814129E-3,1.7544888E-3,0E0,0E0,0E0,0E0,0E0,0E0],"parents":[2147483647,0,0,1,1,2,2,3,3,5,5,6,6],"right_children":[2,4,6,8,-1,10,12,-1,-1,-1,-1,-1,-1],"split_conditions":[2.6334628E-1,1.5856682E-1,4.524435E-1,5.015885E-2,-0E0,2.009E3,3E0,-2.9444334E-3,-1.5915054E-3,-0E0,2.3358928E-3,4.7225854E-4,5.3571267E-3],"split_indices":[3,2,3,12,0,1,0,0,0,0,0,0,0],"split_type":[0,0,0,0,0,0,0,0,0,0,0,0,0],"sum_hessian":[2.88E2,1.79E2,1.09E2,1.41E2,3.8E1,8.4E1,2.5E1,4.4E1,9.7E1,1.1E1,7.3E1,6E0,1.9E1],"tree_param":{"num_deleted":"0","num_feature":"14","num_nodes":"13","size_leaf_vector":"1"}},{"base_weights":[1.0349836E-5,-1.7222669E-2,2.2602059E-2,-2.2274757E-2,-8.234266E-3,1.0221325E-2,3.2562427E-2,-2.2454653E-3,-0E0,-9.325365E-4,-0E0,-0E0,1.2917722E-3,-0E0,3.344398E-3],"categories":[],"categories_nodes":[],"categories_segments":[],"categories_sizes":[],"default_left":[0,0,0,0,0,0,0,0,0,0,0,0,0,0,0],"id":20,"left_children":[1,3,5,7,9,11,13,-1,-1,-1,-1,-1,-1,-1,-1],"loss_changes":[1.1344166E-1,4.1221306E-3,1.1173323E-2,2.682656E-4,6.7493506E-4,2.7626278E-3,2.7219206E-3,0E0,0E0,0E0,0E0,0E0,0E0,0E0,0E0],"parents":[2147483647,0,0,1,1,2,2,3,3,4,4,5,5,6,6],"right_children":[2,4,6,8,10,12,14,-1,-1,-1,-1,-1,-1,-1,-1],"split_conditions":[1.8041588E-1,7.980675E-2,3.946664E-1,1.0385591E-1,1.6607833E-1,3E0,2.8678796E-1,-2.2454653E-3,-0E0,-9.325365E-4,-0E0,-0E0,1.2917722E-3,-0E0,3.344398E-3],"split_indices":[13,2,4,12,12,0,12,0,0,0,0,0,0,0,0],"split_type":[0,0,0,0,0,0,0,0,0,0,0,0,0,0,0],"sum_hessian":[2.88E2,1.61E2,1.27E2,9.5E1,6.6E1,6.2E1,6.5E1,9.4E1,1E0,5.9E1,7E0,7E0,5.5E1,1E0,6.4E1],"tree_param":{"num_deleted":"0","num_feature":"14","num_nodes":"15","size_leaf_vector":"1"}},{"base_weights":[-0E0,-1.3717113E-2,2.320978E-2,-1.720804E-2,-0E0,1.6855478E-2,3.9244626E-2,-2.9418417E-3,-1.3918397E-3,-0E0,1.8747747E-3,1.4511848E-4,4.5510097E-3],"categories":[],"categories_nodes":[],"categories_segments":[],"categories_sizes":[],"default_left":[0,0,0,0,0,0,0,0,0,0,0,0,0],"id":21,"left_children":[1,3,5,7,-1,9,11,-1,-1,-1,-1,-1,-1],"loss_changes":[9.3124986E-2,8.476023E-3,4.9364306E-3,1.0008477E-3,0E0,1.8602684E-3,1.3944656E-3,0E0,0E0,0E0,0E0,0E0,0E0],"parents":[2147483647,0,0,1,1,2,2,3,3,5,5,6,6],"right_children":[2,4,6,8,-1,10,12,-1,-1,-1,-1,-1,-1],"split_conditions":[2.6334628E-1,1.382652E-1,4.524435E-1,4.295929E-2,-0E0,2.009E3,3E0,-2.9418417E-3,-1.3918397E-3,-0E0,1.8747747E-3,1.4511848E-4,4.5510097E-3],"split_indices":[3,11,3,2,0,1,0,0,0,0,0,0,0],"split_type":[0,0,0,0,0,0,0,0,0,0,0,0,0],"sum_hessian":[2.88E2,1.79E2,1.09E2,1.42E2,3.7E1,8.4E1,2.5E1,2.2E1,1.2E2,1.1E1,7.3E1,6E0,1.9E1],"tree_param":{"num_deleted":"0","num_feature":"14","num_nodes":"13","size_leaf_vector":"1"}},{"base_weights":[-0E0,-1.4077497E-2,1.8788746E-2,-1.6946636E-2,-3.350907E-3,7.94839E-3,2.6885357E-2,-1.7056251E-3,-0E0,-4.0240164E-4,-0E0,1.1140861E-3,-0E0,2.8302849E-3,-0E0],"categories":[],"categories_nodes":[],"categories_segments":[],"categories_sizes":[],"default_left":[0,0,0,0,0,0,0,0,0,0,0,0,0,0,0],"id":22,"left_children":[1,3,5,7,9,11,13,-1,-1,-1,-1,-1,-1,-1,-1],"loss_changes":[7.713583E-2,2.9299594E-3,7.4497387E-3,1.6007945E-4,1.8107213E-4,1.8556733E-3,2.0371303E-3,0E0,0E0,0E0,0E0,0E0,0E0,0E0,0E0],"parents":[2147483647,0,0,1,1,2,2,3,3,4,4,5,5,6,6],"right_children":[2,4,6,8,10,12,14,-1,-1,-1,-1,-1,-1,-1,-1],"split_conditions":[2.1161945E-1,9.4357744E-2,3.946664E-1,1.0385591E-1,2.008E3,3.55311E-1,4.8690206E-1,-1.7056251E-3,-0E0,-4.0240164E-4,-0E0,1.1140861E-3,-0E0,2.8302849E-3,-0E0],"split_indices":[8,2,3,12,1,3,13,0,0,0,0,0,0,0,0],"split_type":[0,0,0,0,0,0,0,0,0,0,0,0,0,0,0],"sum_hessian":[2.88E2,1.62E2,1.26E2,1.2E2,4.2E1,6E1,6.6E1,1.19E2,1E0,4E1,2E0,4.5E1,1.5E1,6.2E1,4E0],"tree_param":{"num_deleted":"0","num_feature":"14","num_nodes":"15","size_leaf_vector":"1"}},{"base_weights":[-0E0,-1.1319042E-2,1.9294718E-2,-1.4001969E-2,-0E0,1.3615601E-2,3.327281E-2,-2.6149966E-3,-1.1191246E-3,1.1147927E-4,-5.5397465E-4,1.5640011E-3,-0E0,-0E0,3.863936E-3],"categories":[],"categories_nodes":[],"categories_segments":[],"categories_sizes":[],"default_left":[0,0,0,0,0,0,0,0,0,0,0,0,0,0,0],"id":23,"left_children":[1,3,5,7,9,11,13,-1,-1,-1,-1,-1,-1,-1,-1],"loss_changes":[6.401321E-2,5.5623185E-3,3.590282E-3,9.5834956E-4,1.9196961E-4,1.6096141E-3,1.0759253E-3,0E0,0E0,0E0,0E0,0E0,0E0,0E0,0E0],"parents":[2147483647,0,0,1,1,2,2,3,3,4,4,5,5,6,6],"right_children":[2,4,6,8,10,12,14,-1,-1,-1,-1,-1,-1,-1,-1],"split_conditions":[2.6769722E-1,1.6029488E-1,4.524435E-1,2.5863413E-2,3.1695715E-1,4.4749328E-1,3E0,-2.6149966E-3,-1.1191246E-3,1.1147927E-4,-5.5397465E-4,1.5640011E-3,-0E0,-0E0,3.863936E-3],"split_indices":[2,3,3,13,8,10,0,0,0,0,0,0,0,0,0],"split_type":[0,0,0,0,0,0,0,0,0,0,0,0,0,0,0],"sum_hessian":[2.88E2,1.79E2,1.09E2,1.45E2,3.4E1,8.4E1,2.5E1,1.9E1,1.26E2,3E1,4E0,7E1,1.4E1,6E0,1.9E1],"tree_param":{"num_deleted":"0","num_feature":"14","num_nodes":"15","size_leaf_vector":"1"}},{"base_weights":[-0E0,-1.0300679E-2,1.7688956E-2,-1.3963793E-2,-1.075054E-3,8.148279E-3,2.410296E-2,-1.4057878E-3,-0E0,-4.1492478E-4,-0E0,-0E0,1.0395511E-3,2.9124366E-3,2.537656E-4],"categories":[],"categories_nodes":[],"categories_segments":[],"categories_sizes":[],"default_left":[0,0,0,0,0,0,0,0,0,0,0,0,0,0,0],"id":24,"left_children":[1,3,5,7,9,11,13,-1,-1,-1,-1,-1,-1,-1,-1],"loss_changes":[5.3517625E-2,4.564116E-3,3.3098087E-3,1.2137927E-4,3.2662944E-4,1.4104878E-3,3.148891E-3,0E0,0E0,0E0,0E0,0E0,0E0,0E0,0E0],"parents":[2147483647,0,0,1,1,2,2,3,3,4,4,5,5,6,6],"right_children":[2,4,6,8,10,12,14,-1,-1,-1,-1,-1,-1,-1,-1],"split_conditions":[2.6334628E-1,2.004E3,4.016279E-1,1.0385591E-1,5E0,3E0,4.607226E-1,-1.4057878E-3,-0E0,-4.1492478E-4,-0E0,-0E0,1.0395511E-3,2.9124366E-3,2.537656E-4],"split_indices":[3,1,4,12,0,0,12,0,0,0,0,0,0,0,0],"split_type":[0,0,0,0,0,0,0,0,0,0,0,0,0,0,0],"sum_hessian":[2.88E2,1.79E2,1.09E2,1.2E2,5.9E1,5.1E1,5.8E1,1.19E2,1E0,2.2E1,3.7E1,7E0,4.4E1,4.3E1,1.5E1],"tree_param":{"num_deleted":"0","num_feature":"14","num_nodes":"15","size_leaf_vector":"1"}},{"base_weights":[-0E0,-9.320583E-3,1.6100029E-2,-1.15057025E-2,-0E0,8.339492E-3,2.4197357E-2,-1.6739265E-3,-7.108037E-4,1.051472E-3,-0E0,3.0888848E-3,4.6894985E-4],"categories":[],"categories_nodes":[],"categories_segments":[],"categories_sizes":[],"default_left":[0,0,0,0,0,0,0,0,0,0,0,0,0],"id":25,"left_children":[1,3,5,7,-1,9,11,-1,-1,-1,-1,-1,-1],"loss_changes":[4.4150393E-2,3.8228445E-3,3.4568794E-3,8.7955967E-4,0E0,1.9614259E-3,2.4325345E-3,0E0,0E0,0E0,0E0,0E0,0E0],"parents":[2147483647,0,0,1,1,2,2,3,3,5,5,6,6],"right_children":[2,4,6,8,-1,10,12,-1,-1,-1,-1,-1,-1],"split_conditions":[2.6334628E-1,1.572328E-1,4.2642823E-1,5.9357375E-2,-0E0,4.152102E-1,4.5479137E-1,-1.6739265E-3,-7.108037E-4,1.051472E-3,-0E0,3.0888848E-3,4.6894985E-4],"split_indices":[3,9,2,4,0,2,12,0,0,0,0,0,0],"split_type":[0,0,0,0,0,0,0,0,0,0,0,0,0],"sum_hessian":[2.88E2,1.79E2,1.09E2,1.46E2,3.3E1,6.3E1,4.6E1,5.5E1,9.1E1,5.7E1,6E0,3E1,1.6E1],"tree_param":{"num_deleted":"0","num_feature":"14","num_nodes":"13","size_leaf_vector":"1"}},{"base_weights":[-0E0,-9.672173E-3,1.2944021E-2,-1.5956294E-2,-6.0955645E-3,5.245396E-3,2.0687126E-2,-1.647966E-3,-0E0,-6.560308E-4,-0E0,7.3234603E-4,-0E0,-0E0,2.3585348E-3],"categories":[],"categories_nodes":[],"categories_segments":[],"categories_sizes":[],"default_left":[0,0,0,0,0,0,0,0,0,0,0,0,0,0,0],"id":26,"left_children":[1,3,5,7,9,11,13,-1,-1,-1,-1,-1,-1,-1,-1],"loss_changes":[3.6601353E-2,1.3386384E-3,4.928477E-3,5.4326095E-4,2.8906018E-4,1.1296975E-3,2.8636027E-3,0E0,0E0,0E0,0E0,0E0,0E0,0E0,0E0],"parents":[2147483647,0,0,1,1,2,2,3,3,4,4,5,5,6,6],"right_children":[2,4,6,8,10,12,14,-1,-1,-1,-1,-1,-1,-1,-1],"split_conditions":[1.8041588E-1,5.6180377E-2,4.034791E-1,7.070674E-2,1.5856682E-1,3.94297E-1,3E0,-1.647966E-3,-0E0,-6.560308E-4,-0E0,7.3234603E-4,-0E0,-0E0,2.3585348E-3],"split_indices":[13,3,5,4,13,9,0,0,0,0,0,0,0,0,0],"split_type":[0,0,0,0,0,0,0,0,0,0,0,0,0,0,0],"sum_hessian":[2.88E2,1.61E2,1.27E2,4.7E1,1.14E2,7.1E1,5.6E1,4.6E1,1E0,1.05E2,9E0,5.7E1,1.4E1,8E0,4.8E1],"tree_param":{"num_deleted":"0","num_feature":"14","num_nodes":"15","size_leaf_vector":"1"}},{"base_weights":[-0E0,-7.7435947E-3,1.3395699E-2,-9.567607E-3,-0E0,8.588546E-3,2.4750017E-2,-1.9272177E-3,-7.157616E-4,7.098292E-5,-5.8516965E-4,1.0419666E-3,-0E0,-0E0,2.892907E-3],"categories":[],"categories_nodes":[],"categories_segments":[],"categories_sizes":[],"default_left":[0,0,0,0,0,0,0,0,0,0,0,0,0,0,0],"id":27,"left_children":[1,3,5,7,9,11,13,-1,-1,-1,-1,-1,-1,-1,-1],"loss_changes":[3.0532308E-2,2.4797851E-3,2.457589E-3,6.1032735E-4,1.8733519E-4,1.4385642E-3,8.111764E-4,0E0,0E0,0E0,0E0,0E0,0E0,0E0,0E0],"parents":[2147483647,0,0,1,1,2,2,3,3,4,4,5,5,6,6],"right_children":[2,4,6,8,10,12,14,-1,-1,-1,-1,-1,-1,-1,-1],"split_conditions":[2.6769722E-1,1.5133032E-1,4.524435E-1,2.5863413E-2,3.1695715E-1,4.4749328E-1,3E0,-1.9272177E-3,-7.157616E-4,7.098292E-5,-5.8516965E-4,1.0419666E-3,-0E0,-0E0,2.892907E-3],"split_indices":[2,8,3,13,8,10,0,0,0,0,0,0,0,0,0],"split_type":[0,0,0,0,0,0,0,0,0,0,0,0,0,0,0],"sum_hessian":[2.88E2,1.79E2,1.09E2,1.44E2,3.5E1,8.4E1,2.5E1,1.9E1,1.25E2,3.1E1,4E0,7E1,1.4E1,6E0,1.9E1],"tree_param":{"num_deleted":"0","num_feature":"14","num_nodes":"15","size_leaf_vector":"1"}},{"base_weights":[-0E0,-7.051256E-3,1.2247541E-2,-1.0623218E-2,-1.7576137E-3,5.4998677E-3,1.9047616E-2,-1.0858084E-3,-0E0,-3.0447927E-4,-0E0,1.0292289E-3,-0E0,2.4819998E-3,1.5187085E-4],"categories":[],"categories_nodes":[],"categories_segments":[],"categories_sizes":[],"default_left":[0,0,0,0,0,0,0,0,0,0,0,0,0,0,0],"id":28,"left_children":[1,3,5,7,9,11,13,-1,-1,-1,-1,-1,-1,-1,-1],"loss_changes":[2.5449887E-2,2.1468084E-3,2.4878066E-3,1.306478E-4,2.7512168E-4,1.771685E-3,2.0840634E-3,0E0,0E0,0E0,0E0,0E0,0E0,0E0,0E0],"parents":[2147483647,0,0,1,1,2,2,3,3,4,4,5,5,6,6],"right_children":[2,4,6,8,10,12,14,-1,-1,-1,-1,-1,-1,-1,-1],"split_conditions":[2.6334628E-1,7.980675E-2,4.2642823E-1,8.891908E-2,1.9570982E-1,3.8140428E-1,4.5479137E-1,-1.0858084E-3,-0E0,-3.0447927E-4,-0E0,1.0292289E-3,-0E0,2.4819998E-3,1.5187085E-4],"split_indices":[3,2,2,3,2,12,12,0,0,0,0,0,0,0,0],"split_type":[0,0,0,0,0,0,0,0,0,0,0,0,0,0,0],"sum_hessian":[2.88E2,1.79E2,1.09E2,9.5E1,8.4E1,6.3E1,4.6E1,9.2E1,3E0,5.7E1,2.7E1,3.4E1,2.9E1,3E1,1.6E1],"tree_param":{"num_deleted":"0","num_feature":"14","num_nodes":"15","size_leaf_vector":"1"}},{"base_weights":[-0E0,-6.3869236E-3,1.1370669E-2,-7.822333E-3,-0E0,-0E0,1.4108476E-2,-1.5979899E-3,-5.5778894E-4,3.6572743E-5,-3.693495E-5,-5.0751993E-4,1.0985069E-5,2.0507153E-3,6.7270227E-4],"categories":[],"categories_nodes":[],"categories_segments":[],"categories_sizes":[],"default_left":[0,0,0,0,0,0,0,0,0,0,0,0,0,0,0],"id":29,"left_children":[1,3,5,7,9,11,13,-1,-1,-1,-1,-1,-1,-1,-1],"loss_changes":[2.1476336E-2,1.733649E-3,4.0206295E-3,4.831571E-4,4.558372E-6,2.3195153E-4,1.4366973E-3,0E0,0E0,0E0,0E0,0E0,0E0,0E0,0E0],"parents":[2147483647,0,0,1,1,2,2,3,3,4,4,5,5,6,6],"right_children":[2,4,6,8,10,12,14,-1,-1,-1,-1,-1,-1,-1,-1],"split_conditions":[2.009E3,1.6029488E-1,3E0,4.034052E-2,3.0160165E-1,4.2642823E-1,2.013E3,-1.5979899E-3,-5.5778894E-4,3.6572743E-5,-3.693495E-5,-5.0751993E-4,1.0985069E-5,2.0507153E-3,6.7270227E-4],"split_indices":[1,6,0,2,6,3,1,0,0,0,0,0,0,0,0],"split_type":[0,0,0,0,0,0,0,0,0,0,0,0,0,0,0],"sum_hessian":[2.88E2,1.8E2,1.08E2,1.48E2,3.2E1,1.8E1,9E1,2.1E1,1.27E2,2.9E1,3E0,8E0,1E1,4E1,5E1],"tree_param":{"num_deleted":"0","num_feature":"14","num_nodes":"15","size_leaf_vector":"1"}},{"base_weights":[-0E0,-4.886425E-3,1.2464349E-2,-8.053638E-3,-0E0,-0E0,1.5047292E-2,-8.1571407E-4,-0E0,7.772554E-5,-1.0712735E-3,1.4341262E-4,-0E0,1.9572552E-3,-0E0],"categories":[],"categories_nodes":[],"categories_segments":[],"categories_sizes":[],"default_left":[0,0,0,0,0,0,0,0,0,0,0,0,0,0,0],"id":30,"left_children":[1,3,5,7,9,11,13,-1,-1,-1,-1,-1,-1,-1,-1],"loss_changes":[1.8231899E-2,2.7826694E-3,2.2620894E-3,1.314492E-4,1.1947486E-3,2.673733E-5,2.7650166E-3,0E0,0E0,0E0,0E0,0E0,0E0,0E0,0E0],"parents":[2147483647,0,0,1,1,2,2,3,3,4,4,5,5,6,6],"right_children":[2,4,6,8,10,12,14,-1,-1,-1,-1,-1,-1,-1,-1],"split_conditions":[3.3639678E-1,8.324235E-2,3.8824674E-1,1.5919894E-1,3.107509E-1,3.628102E-1,4.5054305E-1,-8.1571407E-4,-0E0,7.772554E-5,-1.0712735E-3,1.4341262E-4,-0E0,1.9572552E-3,-0E0],"split_indices":[7,13,2,6,7,2,10,0,0,0,0,0,0,0,0],"split_type":[0,0,0,0,0,0,0,0,0,0,0,0,0,0,0],"sum_hessian":[2.88E2,2.03E2,8.5E1,1.17E2,8.6E1,1.7E1,6.8E1,1.16E2,1E0,7.7E1,9E0,1.2E1,5E0,4.7E1,2.1E1],"tree_param":{"num_deleted":"0","num_feature":"14","num_nodes":"15","size_leaf_vector":"1"}},{"base_weights":[-0E0,-5.3915954E-3,9.546886E-3,-8.354966E-3,-1.3792954E-3,6.1627612E-3,2.390216E-2,-8.460986E-4,-0E0,-1.9995833E-4,-0E0,7.54759E-4,-5.949455E-4,-0E0,2.497369E-3],"categories":[],"categories_nodes":[],"categories_segments":[],"categories_sizes":[],"default_left":[0,0,0,0,0,0,0,0,0,0,0,0,0,0,0],"id":31,"left_children":[1,3,5,7,9,11,13,-1,-1,-1,-1,-1,-1,-1,-1],"loss_changes":[1.5258207E-2,1.1552377E-3,2.1900097E-3,8.708285E-5,1.688307E-4,1.8149586E-3,1.6189273E-4,0E0,0E0,0E0,0E0,0E0,0E0,0E0,0E0],"parents":[2147483647,0,0,1,1,2,2,3,3,4,4,5,5,6,6],"right_children":[2,4,6,8,10,12,14,-1,-1,-1,-1,-1,-1,-1,-1],"split_conditions":[2.6334628E-1,7.648198E-2,4.679673E-1,1.0385591E-1,2.9093775E-1,4.6378466E-1,2E0,-8.460986E-4,-0E0,-1.9995833E-4,-0E0,7.54759E-4,-5.949455E-4,-0E0,2.497369E-3],"split_indices":[3,4,4,12,13,4,0,0,0,0,0,0,0,0,0],"split_type":[0,0,0,0,0,0,0,0,0,0,0,0,0,0,0],"sum_hessian":[2.88E2,1.79E2,1.09E2,8.8E1,9.1E1,9.5E1,1.4E1,8.7E1,1E0,8.5E1,6E0,9.3E1,2E0,1E0,1.3E1],"tree_param":{"num_deleted":"0","num_feature":"14","num_nodes":"15","size_leaf_vector":"1"}},{"base_weights":[-0E0,-4.059362E-3,1.042927E-2,-5.8888593E-3,-0E0,2.051571E-2,3.4820961E-3,-1.3417008E-3,-3.96065E-4,2.319103E-4,-4.9602514E-4,2.3327682E-3,-0E0,-0E0,9.980005E-4],"categories":[],"categories_nodes":[],"categories_segments":[],"categories_sizes":[],"default_left":[0,0,0,0,0,0,0,0,0,0,0,0,0,0,0],"id":32,"left_children":[1,3,5,7,9,11,13,-1,-1,-1,-1,-1,-1,-1,-1],"loss_changes":[1.2715789E-2,1.9095594E-3,3.5549942E-3,4.1550212E-4,4.4423167E-4,1.9427622E-3,1.4879615E-3,0E0,0E0,0E0,0E0,0E0,0E0,0E0,0E0],"parents":[2147483647,0,0,1,1,2,2,3,3,4,4,5,5,6,6],"right_children":[2,4,6,8,10,12,14,-1,-1,-1,-1,-1,-1,-1,-1],"split_conditions":[3.253922E-1,1.9198279E-1,2.013E3,2.5863413E-2,3.012199E-1,5.0534016E-1,2.016E3,-1.3417008E-3,-3.96065E-4,2.319103E-4,-4.9602514E-4,2.3327682E-3,-0E0,-0E0,9.980005E-4],"split_indices":[9,2,1,13,9,13,1,0,0,0,0,0,0,0,0],"split_type":[0,0,0,0,0,0,0,0,0,0,0,0,0,0,0],"sum_hessian":[2.88E2,2.03E2,8.5E1,1.51E2,5.2E1,2.8E1,5.7E1,1.9E1,1.32E2,4.5E1,7E0,2.5E1,3E0,3.6E1,2.1E1],"tree_param":{"num_deleted":"0","num_feature":"14","num_nodes":"15","size_leaf_vector":"1"}},{"base_weights":[-0E0,-3.7309076E-3,9.551674E-3,-6.7631286E-3,-4.705252E-5,-0E0,1.1785661E-2,-7.306902E-4,-0E0,-0E0,-1.0179422E-3,1.5797736E-3,-0E0],"categories":[],"categories_nodes":[],"categories_segments":[],"categories_sizes":[],"default_left":[0,0,0,0,0,0,0,0,0,0,0,0,0],"id":33,"left_children":[1,3,5,7,9,-1,11,-1,-1,-1,-1,-1,-1],"loss_changes":[1.0685777E-2,1.5973968E-3,1.7380593E-3,3.6840234E-4,1.0359673E-3,0E0,2.3950627E-3,0E0,0E0,0E0,0E0,0E0,0E0],"parents":[2147483647,0,0,1,1,2,2,3,3,4,4,6,6],"right_children":[2,4,6,8,10,-1,12,-1,-1,-1,-1,-1,-1],"split_conditions":[3.3639678E-1,2.002E3,3.8824674E-1,8.426851E-2,3.107509E-1,-0E0,4.5054305E-1,-7.306902E-4,-0E0,-0E0,-1.0179422E-3,1.5797736E-3,-0E0],"split_indices":[7,1,2,3,7,0,10,0,0,0,0,0,0],"split_type":[0,0,0,0,0,0,0,0,0,0,0,0,0],"sum_hessian":[2.88E2,2.03E2,8.5E1,9.6E1,1.07E2,1.7E1,6.8E1,8.9E1,7E0,9.8E1,9E0,4.7E1,2.1E1],"tree_param":{"num_deleted":"0","num_feature":"14","num_nodes":"13","size_leaf_vector":"1"}},{"base_weights":[-0E0,-2.6152513E-3,1.12611195E-2,-1.0729465E-2,-4.4390652E-4,1.4744732E-2,-0E0,-1.0982862E-3,-0E0,-1.8883105E-4,9.4028324E-4,-0E0,1.6137529E-3,-2.643375E-4,2.0162573E-4],"categories":[],"categories_nodes":[],"categories_segments":[],"categories_sizes":[],"default_left":[0,0,0,0,0,0,0,0,0,0,0,0,0,0,0],"id":34,"left_children":[1,3,5,7,9,11,13,-1,-1,-1,-1,-1,-1,-1,-1],"loss_changes":[9.061889E-3,2.9478322E-3,2.0839567E-3,9.394856E-5,2.011278E-3,1.6321419E-3,8.0798534E-5,0E0,0E0,0E0,0E0,0E0,0E0,0E0,0E0],"parents":[2147483647,0,0,1,1,2,2,3,3,4,4,5,5,6,6],"right_children":[2,4,6,8,10,12,14,-1,-1,-1,-1,-1,-1,-1,-1],"split_conditions":[4.016279E-1,3E0,4.607226E-1,3.8824674E-1,3.94297E-1,2.8678796E-1,4.679673E-1,-1.0982862E-3,-0E0,-1.8883105E-4,9.4028324E-4,-0E0,1.6137529E-3,-2.643375E-4,2.0162573E-4],"split_indices":[4,0,12,2,3,12,12,0,0,0,0,0,0,0,0],"split_type":[0,0,0,0,0,0,0,0,0,0,0,0,0,0,0],"sum_hessian":[2.88E2,2.3E2,5.8E1,3.8E1,1.92E2,4.3E1,1.5E1,3.7E1,1E0,1.77E2,1.5E1,1E0,4.2E1,3E0,1.2E1],"tree_param":{"num_deleted":"0","num_feature":"14","num_nodes":"15","size_leaf_vector":"1"}},{"base_weights":[-0E0,-4.353435E-3,5.90695E-3,-9.760511E-3,-2.458979E-3,3.353959E-3,1.8249221E-2,-1.0205028E-3,-0E0,-2.5863937E-4,-0E0,4.4761001E-4,-6.3239614E-4,2.0062441E-3,-0E0],"categories":[],"categories_nodes":[],"categories_segments":[],"categories_sizes":[],"default_left":[0,0,0,0,0,0,0,0,0,0,0,0,0,0,0],"id":35,"left_children":[1,3,5,7,9,11,13,-1,-1,-1,-1,-1,-1,-1,-1],"loss_changes":[7.5364723E-3,4.1349162E-4,1.8117176E-3,1.4435803E-4,6.0027698E-5,1.0815598E-3,2.3700949E-4,0E0,0E0,0E0,0E0,0E0,0E0,0E0,0E0],"parents":[2147483647,0,0,1,1,2,2,3,3,4,4,5,5,6,6],"right_children":[2,4,6,8,10,12,14,-1,-1,-1,-1,-1,-1,-1,-1],"split_conditions":[1.8041588E-1,4.6587802E-2,4.679673E-1,8.102583E-2,1.7356932E-1,4.6378466E-1,5.0534016E-1,-1.0205028E-3,-0E0,-2.5863937E-4,-0E0,4.4761001E-4,-6.3239614E-4,2.0062441E-3,-0E0],"split_indices":[13,2,4,9,12,4,9,0,0,0,0,0,0,0,0],"split_type":[0,0,0,0,0,0,0,0,0,0,0,0,0,0,0],"sum_hessian":[2.88E2,1.61E2,1.27E2,2.7E1,1.34E2,1.13E2,1.4E1,2.6E1,1E0,1.3E2,4E0,1.11E2,2E0,1.2E1,2E0],"tree_param":{"num_deleted":"0","num_feature":"14","num_nodes":"15","size_leaf_vector":"1"}},{"base_weights":[-0E0,-2.2289907E-3,9.37953E-3,-9.450253E-3,-2.40088E-4,1.2482798E-2,-0E0,-9.658208E-4,-0E0,-1.5503589E-4,8.1016816E-4,-0E0,1.3808286E-3,-2.510814E-4,1.09172965E-4],"categories":[],"categories_nodes":[],"categories_segments":[],"categories_sizes":[],"default_left":[0,0,0,0,0,0,0,0,0,0,0,0,0,0,0],"id":36,"left_children":[1,3,5,7,9,11,13,-1,-1,-1,-1,-1,-1,-1,-1],"loss_changes":[6.338261E-3,2.3464086E-3,1.6655293E-3,6.1693136E-5,1.4669137E-3,1.3426659E-3,4.07111E-5,0E0,0E0,0E0,0E0,0E0,0E0,0E0,0E0],"parents":[2147483647,0,0,1,1,2,2,3,3,4,4,5,5,6,6],"right_children":[2,4,6,8,10,12,14,-1,-1,-1,-1,-1,-1,-1,-1],"split_conditions":[4.016279E-1,3E0,4.607226E-1,3.8824674E-1,3.94297E-1,2.8678796E-1,4.679673E-1,-9.658208E-4,-0E0,-1.5503589E-4,8.1016816E-4,-0E0,1.3808286E-3,-2.510814E-4,1.09172965E-4],"split_indices":[4,0,12,2,3,12,12,0,0,0,0,0,0,0,0],"split_type":[0,0,0,0,0,0,0,0,0,0,0,0,0,0,0],"sum_hessian":[2.88E2,2.3E2,5.8E1,3.8E1,1.92E2,4.3E1,1.5E1,3.7E1,1E0,1.77E2,1.5E1,1E0,4.2E1,3E0,1.2E1],"tree_param":{"num_deleted":"0","num_feature":"14","num_nodes":"15","size_leaf_vector":"1"}},{"base_weights":[-0E0,-3.6662905E-3,4.9493955E-3,-6.897001E-3,-1.339959E-3,-0E0,6.6639646E-3,-7.498718E-4,-0E0,-0E0,-2.2435228E-4,-1.6867094E-4,-0E0,8.0360204E-4,-0E0],"categories":[],"categories_nodes":[],"categories_segments":[],"categories_sizes":[],"default_left":[0,0,0,0,0,0,0,0,0,0,0,0,0,0,0],"id":37,"left_children":[1,3,5,7,9,11,13,-1,-1,-1,-1,-1,-1,-1,-1],"loss_changes":[5.302053E-3,3.9212196E-4,1.6406435E-3,2.0818389E-4,2.1811925E-4,4.551982E-5,9.957072E-4,0E0,0E0,0E0,0E0,0E0,0E0,0E0,0E0],"parents":[2147483647,0,0,1,1,2,2,3,3,4,4,5,5,6,6],"right_children":[2,4,6,8,10,12,14,-1,-1,-1,-1,-1,-1,-1,-1],"split_conditions":[2.1161945E-1,5.414447E-2,3E0,1.2E1,6.878987E-2,4.3283147E-1,4.5054305E-1,-7.498718E-4,-0E0,-0E0,-2.2435228E-4,-1.6867094E-4,-0E0,8.0360204E-4,-0E0],"split_indices":[8,10,0,0,8,10,10,0,0,0,0,0,0,0,0],"split_type":[0,0,0,0,0,0,0,0,0,0,0,0,0,0,0],"sum_hessian":[2.88E2,1.62E2,1.26E2,4.9E1,1.13E2,2E1,1.06E2,4.5E1,4E0,3E1,8.3E1,1.5E1,5E0,8.8E1,1.8E1],"tree_param":{"num_deleted":"0","num_feature":"14","num_nodes":"15","size_leaf_vector":"1"}},{"base_weights":[-0E0,-1.9321227E-3,8.16372E-3,-4.6154526E-3,-0E0,-0E0,1.0041763E-2,-5.0004077E-4,-0E0,7.681807E-5,-2.0137329E-4,1.365255E-3,-0E0],"categories":[],"categories_nodes":[],"categories_segments":[],"categories_sizes":[],"default_left":[0,0,0,0,0,0,0,0,0,0,0,0,0],"id":38,"left_children":[1,3,5,7,9,-1,11,-1,-1,-1,-1,-1,-1],"loss_changes":[4.6686525E-3,1.1965211E-3,1.1421726E-3,2.3404136E-4,2.1656972E-4,0E0,1.3963189E-3,0E0,0E0,0E0,0E0,0E0,0E0],"parents":[2147483647,0,0,1,1,2,2,3,3,4,4,6,6],"right_children":[2,4,6,8,10,-1,12,-1,-1,-1,-1,-1,-1],"split_conditions":[4.034791E-1,2.002E3,3E0,9.1303885E-2,3.122532E-1,-0E0,4.5054305E-1,-5.0004077E-4,-0E0,7.681807E-5,-2.0137329E-4,1.365255E-3,-0E0],"split_indices":[5,1,0,2,6,0,10,0,0,0,0,0,0],"split_type":[0,0,0,0,0,0,0,0,0,0,0,0,0],"sum_hessian":[2.88E2,2.32E2,5.6E1,9.6E1,1.36E2,8E0,4.8E1,9.1E1,5E0,9.8E1,3.8E1,3.3E1,1.5E1],"tree_param":{"num_deleted":"0","num_feature":"14","num_nodes":"13","size_leaf_vector":"1"}},{"base_weights":[-0E0,-1.8359274E-3,7.454597E-3,-8.006945E-3,-6.128674E-5,1.01251425E-2,-0E0,-8.186657E-4,-0E0,-1.17768E-4,6.1124185E-4,-0E0,1.1409806E-3,-2.8647092E-4,4.4413657E-5],"categories":[],"categories_nodes":[],"categories_segments":[],"categories_sizes":[],"default_left":[0,0,0,0,0,0,0,0,0,0,0,0,0,0,0],"id":39,"left_children":[1,3,5,7,9,11,13,-1,-1,-1,-1,-1,-1,-1,-1],"loss_changes":[4.057305E-3,1.7224454E-3,1.2321246E-3,4.647579E-5,8.439352E-4,1.087084E-3,3.5390578E-5,0E0,0E0,0E0,0E0,0E0,0E0,0E0,0E0],"parents":[2147483647,0,0,1,1,2,2,3,3,4,4,5,5,6,6],"right_children":[2,4,6,8,10,12,14,-1,-1,-1,-1,-1,-1,-1,-1],"split_conditions":[4.016279E-1,3E0,4.607226E-1,3.8824674E-1,3.94297E-1,2.8678796E-1,4.679673E-1,-8.186657E-4,-0E0,-1.17768E-4,6.1124185E-4,-0E0,1.1409806E-3,-2.8647092E-4,4.4413657E-5],"split_indices":[4,0,12,2,3,12,12,0,0,0,0,0,0,0,0],"split_type":[0,0,0,0,0,0,0,0,0,0,0,0,0,0,0],"sum_hessian":[2.88E2,2.3E2,5.8E1,3.8E1,1.92E2,4.3E1,1.5E1,3.7E1,1E0,1.77E2,1.5E1,1E0,4.2E1,3E0,1.2E1],"tree_param":{"num_deleted":"0","num_feature":"14","num_nodes":"15","size_leaf_vector":"1"}},{"base_weights":[-0E0,-1.0590714E-3,1.1141903E-2,-6.368712E-3,-0E0,1.3189685E-2,-0E0,-7.2557764E-4,-0E0,-1.2770273E-4,2.9883624E-4,-0E0,1.5059141E-3],"categories":[],"categories_nodes":[],"categories_segments":[],"categories_sizes":[],"default_left":[0,0,0,0,0,0,0,0,0,0,0,0,0],"id":40,"left_children":[1,3,5,7,9,11,-1,-1,-1,-1,-1,-1,-1],"loss_changes":[3.523803E-3,1.5696718E-3,9.475346E-4,3.980078E-4,8.624421E-4,3.6032824E-4,0E0,0E0,0E0,0E0,0E0,0E0,0E0],"parents":[2147483647,0,0,1,1,2,2,3,3,4,4,5,5],"right_children":[2,4,6,8,10,12,-1,-1,-1,-1,-1,-1,-1],"split_conditions":[4.4749328E-1,3E0,5.0534016E-1,4.6378466E-1,2.009E3,4.152102E-1,-0E0,-7.2557764E-4,-0E0,-1.2770273E-4,2.9883624E-4,-0E0,1.5059141E-3],"split_indices":[6,0,13,3,1,4,0,0,0,0,0,0,0],"split_type":[0,0,0,0,0,0,0,0,0,0,0,0,0],"sum_hessian":[2.88E2,2.63E2,2.5E1,4.5E1,2.18E2,2.3E1,2E0,4.2E1,3E0,1.5E2,6.8E1,4E0,1.9E1],"tree_param":{"num_deleted":"0","num_feature":"14","num_nodes":"13","size_leaf_vector":"1"}},{"base_weights":[-0E0,-1.3435441E-3,7.176017E-3,-6.4956825E-3,-0E0,1.1076672E-2,-0E0,-6.991609E-4,-0E0,-1.4890371E-4,1.7396898E-4,-0E0,1.678092E-3,-2.3946566E-4,1.30532E-4],"categories":[],"categories_nodes":[],"categories_segments":[],"categories_sizes":[],"default_left":[0,0,0,0,0,0,0,0,0,0,0,0,0,0,0],"id":41,"left_children":[1,3,5,7,9,11,13,-1,-1,-1,-1,-1,-1,-1,-1],"loss_changes":[2.8589172E-3,1.3335017E-3,1.3831973E-3,1.831603E-4,5.124132E-4,2.6733112E-3,6.291365E-5,0E0,0E0,0E0,0E0,0E0,0E0,0E0,0E0],"parents":[2147483647,0,0,1,1,2,2,3,3,4,4,5,5,6,6],"right_children":[2,4,6,8,10,12,14,-1,-1,-1,-1,-1,-1,-1,-1],"split_conditions":[4.2642823E-1,3E0,4.5054305E-1,4.3957952E-1,1.7860983E-1,5E0,4.4125012E-1,-6.991609E-4,-0E0,-1.4890371E-4,1.7396898E-4,-0E0,1.678092E-3,-2.3946566E-4,1.30532E-4],"split_indices":[2,0,10,3,3,0,5,0,0,0,0,0,0,0,0],"split_type":[0,0,0,0,0,0,0,0,0,0,0,0,0,0,0],"sum_hessian":[2.88E2,2.42E2,4.6E1,4.1E1,2.01E2,3E1,1.6E1,3.9E1,2E0,1.25E2,7.6E1,8E0,2.2E1,7E0,9E0],"tree_param":{"num_deleted":"0","num_feature":"14","num_nodes":"15","size_leaf_vector":"1"}},{"base_weights":[-0E0,-9.0169825E-4,9.426279E-3,-5.218111E-3,-0E0,1.1311137E-2,-0E0,-6.1450555E-4,-0E0,-3.335564E-5,6.7611336E-4,-0E0,1.2897487E-3],"categories":[],"categories_nodes":[],"categories_segments":[],"categories_sizes":[],"default_left":[0,0,0,0,0,0,0,0,0,0,0,0,0],"id":42,"left_children":[1,3,5,7,9,11,-1,-1,-1,-1,-1,-1,-1],"loss_changes":[2.5248711E-3,1.0923289E-3,7.603804E-4,2.4125329E-4,5.714746E-4,2.562995E-4,0E0,0E0,0E0,0E0,0E0,0E0,0E0],"parents":[2147483647,0,0,1,1,2,2,3,3,4,4,5,5],"right_children":[2,4,6,8,10,12,-1,-1,-1,-1,-1,-1,-1],"split_conditions":[4.4749328E-1,5.6180377E-2,5.0534016E-1,5.9357375E-2,4.524435E-1,4.152102E-1,-0E0,-6.1450555E-4,-0E0,-3.335564E-5,6.7611336E-4,-0E0,1.2897487E-3],"split_indices":[6,3,13,4,7,4,0,0,0,0,0,0,0],"split_type":[0,0,0,0,0,0,0,0,0,0,0,0,0],"sum_hessian":[2.88E2,2.63E2,2.5E1,4.7E1,2.16E2,2.3E1,2E0,4E1,7E0,2.05E2,1.1E1,4E0,1.9E1],"tree_param":{"num_deleted":"0","num_feature":"14","num_nodes":"13","size_leaf_vector":"1"}},{"base_weights":[-0E0,-8.257952E-4,8.635364E-3,-5.0405753E-3,-0E0,-0E0,1.0970352E-2,-6.176539E-4,-0E0,-1.1576051E-4,1.4906499E-4,-0E0,1.1948062E-3],"categories":[],"categories_nodes":[],"categories_segments":[],"categories_sizes":[],"default_left":[0,0,0,0,0,0,0,0,0,0,0,0,0],"id":43,"left_children":[1,3,5,7,9,-1,11,-1,-1,-1,-1,-1,-1],"loss_changes":[2.1188387E-3,9.124866E-4,4.681656E-4,4.334672E-4,3.8438383E-4,0E0,3.053944E-4,0E0,0E0,0E0,0E0,0E0,0E0],"parents":[2147483647,0,0,1,1,2,2,3,3,4,4,6,6],"right_children":[2,4,6,8,10,-1,12,-1,-1,-1,-1,-1,-1],"split_conditions":[4.524435E-1,3E0,3E0,4.2642823E-1,1.7860983E-1,-0E0,3.4956038E-1,-6.176539E-4,-0E0,-1.1576051E-4,1.4906499E-4,-0E0,1.1948062E-3],"split_indices":[3,0,0,2,3,0,2,0,0,0,0,0,0],"split_type":[0,0,0,0,0,0,0,0,0,0,0,0,0],"sum_hessian":[2.88E2,2.63E2,2.5E1,4.2E1,2.21E2,6E0,1.9E1,3.9E1,3E0,1.25E2,9.6E1,1E0,1.8E1],"tree_param":{"num_deleted":"0","num_feature":"14","num_nodes":"13","size_leaf_vector":"1"}},{"base_weights":[-0E0,-7.52409E-4,7.995645E-3,-4.5090257E-3,-0E0,9.817277E-3,-0E0,-7.3269306E-4,-0E0,-2.4381216E-5,5.668548E-4,-0E0,1.1186956E-3],"categories":[],"categories_nodes":[],"categories_segments":[],"categories_sizes":[],"default_left":[0,0,0,0,0,0,0,0,0,0,0,0,0],"id":44,"left_children":[1,3,5,7,9,11,-1,-1,-1,-1,-1,-1,-1],"loss_changes":[1.811644E-3,8.264476E-4,6.50906E-4,2.0514289E-4,3.9783475E-4,1.8986501E-4,0E0,0E0,0E0,0E0,0E0,0E0,0E0],"parents":[2147483647,0,0,1,1,2,2,3,3,4,4,5,5],"right_children":[2,4,6,8,10,12,-1,-1,-1,-1,-1,-1,-1],"split_conditions":[4.4749328E-1,5.6180377E-2,5.0534016E-1,5E0,4.524435E-1,4.152102E-1,-0E0,-7.3269306E-4,-0E0,-2.4381216E-5,5.668548E-4,-0E0,1.1186956E-3],"split_indices":[6,3,13,0,7,4,0,0,0,0,0,0,0],"split_type":[0,0,0,0,0,0,0,0,0,0,0,0,0],"sum_hessian":[2.88E2,2.63E2,2.5E1,4.7E1,2.16E2,2.3E1,2E0,2.1E1,2.6E1,2.05E2,1.1E1,4E0,1.9E1],"tree_param":{"num_deleted":"0","num_feature":"14","num_nodes":"13","size_leaf_vector":"1"}},{"base_weights":[-0E0,-7.1282336E-4,7.320383E-3,-5.7040798E-3,-0E0,-0E0,9.397432E-3,-6.049097E-4,-0E0,-2.5365403E-4,3.2374926E-5,-0E0,1.0933311E-3],"categories":[],"categories_nodes":[],"categories_segments":[],"categories_sizes":[],"default_left":[0,0,0,0,0,0,0,0,0,0,0,0,0],"id":45,"left_children":[1,3,5,7,9,-1,11,-1,-1,-1,-1,-1,-1],"loss_changes":[1.5274312E-3,7.443433E-4,3.7294615E-4,7.2894734E-5,2.7189008E-4,0E0,2.6589958E-4,0E0,0E0,0E0,0E0,0E0,0E0],"parents":[2147483647,0,0,1,1,2,2,3,3,4,4,6,6],"right_children":[2,4,6,8,10,-1,12,-1,-1,-1,-1,-1,-1],"split_conditions":[4.524435E-1,4.295929E-2,3E0,5.525683E-2,3E0,-0E0,4.1323176E-1,-6.049097E-4,-0E0,-2.5365403E-4,3.2374926E-5,-0E0,1.0933311E-3],"split_indices":[3,6,0,7,0,0,2,0,0,0,0,0,0],"split_type":[0,0,0,0,0,0,0,0,0,0,0,0,0],"sum_hessian":[2.88E2,2.63E2,2.5E1,2.6E1,2.37E2,6E0,1.9E1,2.5E1,1E0,3.8E1,1.99E2,3E0,1.6E1],"tree_param":{"num_deleted":"0","num_feature":"14","num_nodes":"13","size_leaf_vector":"1"}},{"base_weights":[-0E0,-4.9417187E-4,9.257876E-3,-4.0940787E-3,-0E0,1.0515902E-2,-0E0,-4.7962271E-4,-0E0,-6.919527E-5,1.9614401E-4,-0E0,1.1342751E-3],"categories":[],"categories_nodes":[],"categories_segments":[],"categories_sizes":[],"default_left":[0,0,0,0,0,0,0,0,0,0,0,0,0],"id":46,"left_children":[1,3,5,7,9,11,-1,-1,-1,-1,-1,-1,-1],"loss_changes":[1.3527807E-3,7.0387154E-4,1.5197054E-4,2.1813478E-4,3.8007836E-4,1.06301275E-4,0E0,0E0,0E0,0E0,0E0,0E0,0E0],"parents":[2147483647,0,0,1,1,2,2,3,3,4,4,5,5],"right_children":[2,4,6,8,10,12,-1,-1,-1,-1,-1,-1,-1],"split_conditions":[4.679673E-1,3E0,5.0534016E-1,4.6378466E-1,2.009E3,4.140773E-1,-0E0,-4.7962271E-4,-0E0,-6.919527E-5,1.9614401E-4,-0E0,1.1342751E-3],"split_indices":[4,0,9,3,1,3,0,0,0,0,0,0,0],"split_type":[0,0,0,0,0,0,0,0,0,0,0,0,0],"sum_hessian":[2.88E2,2.74E2,1.4E1,4.5E1,2.29E2,1.2E1,2E0,4.2E1,3E0,1.5E2,7.9E1,1E0,1.1E1],"tree_param":{"num_deleted":"0","num_feature":"14","num_nodes":"13","size_leaf_vector":"1"}},{"base_weights":[-0E0,-6.0689985E-4,6.374703E-3,-6.1751134E-3,-0E0,8.124508E-3,-0E0,-6.7683397E-4,-0E0,3.6002846E-5,-2.8575663E-4,-0E0,9.0717024E-4],"categories":[],"categories_nodes":[],"categories_segments":[],"categories_sizes":[],"default_left":[0,0,0,0,0,0,0,0,0,0,0,0,0],"id":47,"left_children":[1,3,5,7,9,11,-1,-1,-1,-1,-1,-1,-1],"loss_changes":[1.1537962E-3,5.89138E-4,5.276252E-4,9.2400645E-5,3.7769668E-4,1.4402822E-4,0E0,0E0,0E0,0E0,0E0,0E0,0E0],"parents":[2147483647,0,0,1,1,2,2,3,3,4,4,5,5],"right_children":[2,4,6,8,10,12,-1,-1,-1,-1,-1,-1,-1],"split_conditions":[4.4749328E-1,2.2579692E-2,5.0534016E-1,1.997E3,3.8140428E-1,3.8512722E-1,-0E0,-6.7683397E-4,-0E0,3.6002846E-5,-2.8575663E-4,-0E0,9.0717024E-4],"split_indices":[6,13,13,1,12,9,0,0,0,0,0,0,0],"split_type":[0,0,0,0,0,0,0,0,0,0,0,0,0],"sum_hessian":[2.88E2,2.63E2,2.5E1,1.7E1,2.46E2,2.3E1,2E0,1.6E1,1E0,2.04E2,4.2E1,3E0,2E1],"tree_param":{"num_deleted":"0","num_feature":"14","num_nodes":"13","size_leaf_vector":"1"}},{"base_weights":[-0E0,-1.83393E-3,2.012855E-3,-5.0618676E-3,-4.6899592E-4,4.545245E-3,-0E0,-5.4199185E-4,-0E0,-0E0,-1.5166604E-4,-0E0,1.0600198E-3,-3.7404185E-4,2.3643194E-4],"categories":[],"categories_nodes":[],"categories_segments":[],"categories_sizes":[],"default_left":[0,0,0,0,0,0,0,0,0,0,0,0,0,0,0],"id":48,"left_children":[1,3,5,7,9,11,13,-1,-1,-1,-1,-1,-1,-1,-1],"loss_changes":[1.0710285E-3,1.098339E-4,1.0689104E-3,2.7568254E-5,1.395444E-4,1.8512096E-3,6.5740716E-4,0E0,0E0,0E0,0E0,0E0,0E0,0E0,0E0],"parents":[2147483647,0,0,1,1,2,2,3,3,4,4,5,5,6,6],"right_children":[2,4,6,8,10,12,14,-1,-1,-1,-1,-1,-1,-1,-1],"split_conditions":[1.8041588E-1,3.7512418E-2,2.013E3,4.034052E-2,7.064927E-2,3.3639678E-1,2.016E3,-5.4199185E-4,-0E0,-0E0,-1.5166604E-4,-0E0,1.0600198E-3,-3.7404185E-4,2.3643194E-4],"split_indices":[2,5,1,6,8,6,1,0,0,0,0,0,0,0,0],"split_type":[0,0,0,0,0,0,0,0,0,0,0,0,0,0,0],"sum_hessian":[2.88E2,1.5E2,1.38E2,2.2E1,1.28E2,7.8E1,6E1,2E1,2E0,5.6E1,7.2E1,4.8E1,3E1,3.6E1,2.4E1],"tree_param":{"num_deleted":"0","num_feature":"14","num_nodes":"15","size_leaf_vector":"1"}},{"base_weights":[-0E0,-1.6898261E-3,1.840131E-3,-3.2926977E-3,-0E0,4.14271E-3,-0E0,-3.7425672E-4,-0E0,-0E0,-1.0067147E-4,-0E0,9.574384E-4,-3.3764789E-4,2.1373543E-4],"categories":[],"categories_nodes":[],"categories_segments":[],"categories_sizes":[],"default_left":[0,0,0,0,0,0,0,0,0,0,0,0,0,0,0],"id":49,"left_children":[1,3,5,7,9,11,13,-1,-1,-1,-1,-1,-1,-1,-1],"loss_changes":[9.0184784E-4,1.10910594E-4,8.8513613E-4,1.0222022E-4,6.6889304E-5,1.4859316E-3,5.3602963E-4,0E0,0E0,0E0,0E0,0E0,0E0,0E0,0E0],"parents":[2147483647,0,0,1,1,2,2,3,3,4,4,5,5,6,6],"right_children":[2,4,6,8,10,12,14,-1,-1,-1,-1,-1,-1,-1,-1],"split_conditions":[1.8041588E-1,5.414447E-2,2.013E3,1.2E1,7.367851E-2,3.3639678E-1,2.016E3,-3.7425672E-4,-0E0,-0E0,-1.0067147E-4,-0E0,9.574384E-4,-3.3764789E-4,2.1373543E-4],"split_indices":[2,10,1,0,6,6,1,0,0,0,0,0,0,0,0],"split_type":[0,0,0,0,0,0,0,0,0,0,0,0,0,0,0],"sum_hessian":[2.88E2,1.5E2,1.38E2,4.9E1,1.01E2,7.8E1,6E1,4.5E1,4E0,3.6E1,6.5E1,4.8E1,3E1,3.6E1,2.4E1],"tree_param":{"num_deleted":"0","num_feature":"14","num_nodes":"15","size_leaf_vector":"1"}},{"base_weights":[-0E0,-1.5349567E-3,1.6840381E-3,-2.818856E-3,-0E0,3.7791291E-3,-0E0,-3.3863483E-4,-0E0,-0E0,-5.337987E-5,-0E0,8.647839E-4,-2.8542898E-4,2.5026654E-4],"categories":[],"categories_nodes":[],"categories_segments":[],"categories_sizes":[],"default_left":[0,0,0,0,0,0,0,0,0,0,0,0,0,0,0],"id":50,"left_children":[1,3,5,7,9,11,13,-1,-1,-1,-1,-1,-1,-1,-1],"loss_changes":[7.499717E-4,9.71492E-5,7.340617E-4,1.4338334E-4,1.852117E-5,1.190075E-3,4.6555576E-4,0E0,0E0,0E0,0E0,0E0,0E0,0E0,0E0],"parents":[2147483647,0,0,1,1,2,2,3,3,4,4,5,5,6,6],"right_children":[2,4,6,8,10,12,14,-1,-1,-1,-1,-1,-1,-1,-1],"split_conditions":[1.8041588E-1,5.9427153E-2,2.013E3,2E3,7.367851E-2,3.3639678E-1,9E0,-3.3863483E-4,-0E0,-0E0,-5.337987E-5,-0E0,8.647839E-4,-2.8542898E-4,2.5026654E-4],"split_indices":[2,4,1,1,6,6,0,0,0,0,0,0,0,0,0],"split_type":[0,0,0,0,0,0,0,0,0,0,0,0,0,0,0],"sum_hessian":[2.88E2,1.5E2,1.38E2,5.6E1,9.4E1,7.8E1,6E1,5.1E1,5E0,3E1,6.4E1,4.8E1,3E1,4E1,2E1],"tree_param":{"num_deleted":"0","num_feature":"14","num_nodes":"15","size_leaf_vector":"1"}},{"base_weights":[-0E0,-1.397958E-3,1.5435191E-3,-2.6852528E-3,-0E0,3.6248309E-3,-0E0,-5.19921E-4,-0E0,-0E0,-2.1840224E-5,-0E0,7.6722744E-4,-8.499633E-4,6.578688E-5],"categories":[],"categories_nodes":[],"categories_segments":[],"categories_sizes":[],"default_left":[0,0,0,0,0,0,0,0,0,0,0,0,0,0,0],"id":51,"left_children":[1,3,5,7,9,11,13,-1,-1,-1,-1,-1,-1,-1,-1],"loss_changes":[6.2625797E-4,9.4274175E-5,6.5429416E-4,2.0532776E-4,2.9096714E-6,7.804588E-4,8.184848E-4,0E0,0E0,0E0,0E0,0E0,0E0,0E0,0E0],"parents":[2147483647,0,0,1,1,2,2,3,3,4,4,5,5,6,6],"right_children":[2,4,6,8,10,12,14,-1,-1,-1,-1,-1,-1,-1,-1],"split_conditions":[1.8041588E-1,5E0,3.8140428E-1,5.6180377E-2,8E0,3.2510078E-1,3.946664E-1,-5.19921E-4,-0E0,-0E0,-2.1840224E-5,-0E0,7.6722744E-4,-8.499633E-4,6.578688E-5],"split_indices":[2,0,12,3,0,4,13,0,0,0,0,0,0,0,0],"split_type":[0,0,0,0,0,0,0,0,0,0,0,0,0,0,0],"sum_hessian":[2.88E2,1.5E2,1.38E2,5.3E1,9.7E1,7.4E1,6.4E1,2.1E1,3.2E1,3.7E1,6E1,4.5E1,2.9E1,1E1,5.4E1],"tree_param":{"num_deleted":"0","num_feature":"14","num_nodes":"15","size_leaf_vector":"1"}},{"base_weights":[-0E0,-4.4632234E-4,4.4697486E-3,-3.2877277E-3,-0E0,-0E0,6.054851E-3,-4.1643955E-4,-0E0,4.3446358E-5,-3.2326457E-4,-0E0,7.0206454E-4],"categories":[],"categories_nodes":[],"categories_segments":[],"categories_sizes":[],"default_left":[0,0,0,0,0,0,0,0,0,0,0,0,0],"id":52,"left_children":[1,3,5,7,9,-1,11,-1,-1,-1,-1,-1,-1],"loss_changes":[5.720347E-4,4.122039E-4,2.1377951E-4,2.2889394E-4,2.4731795E-4,0E0,1.539858E-4,0E0,0E0,0E0,0E0,0E0,0E0],"parents":[2147483647,0,0,1,1,2,2,3,3,4,4,6,6],"right_children":[2,4,6,8,10,-1,12,-1,-1,-1,-1,-1,-1],"split_conditions":[4.524435E-1,3E0,3E0,4.2642823E-1,4.3282327E-1,-0E0,3.4069434E-1,-4.1643955E-4,-0E0,4.3446358E-5,-3.2326457E-4,-0E0,7.0206454E-4],"split_indices":[3,0,0,2,2,0,13,0,0,0,0,0,0],"split_type":[0,0,0,0,0,0,0,0,0,0,0,0,0],"sum_hessian":[2.88E2,2.63E2,2.5E1,4.2E1,2.21E2,6E0,1.9E1,3.9E1,3E0,2.02E2,1.9E1,2E0,1.7E1],"tree_param":{"num_deleted":"0","num_feature":"14","num_nodes":"13","size_leaf_vector":"1"}},{"base_weights":[-0E0,-6.6361134E-4,2.7136384E-3,-0E0,-3.5005708E-3,6.224414E-3,-0E0,-1.0681709E-4,5.762626E-4,-1.0172813E-3,-0E0,-0E0,7.6542114E-4,-2.1340958E-4,1.4467326E-4],"categories":[],"categories_nodes":[],"categories_segments":[],"categories_sizes":[],"default_left":[0,0,0,0,0,0,0,0,0,0,0,0,0,0,0],"id":53,"left_children":[1,3,5,7,9,11,13,-1,-1,-1,-1,-1,-1,-1,-1],"loss_changes":[5.22347E-4,3.7529727E-4,6.650747E-4,1.1215061E-3,9.7090023E-4,4.384477E-4,1.0918803E-4,0E0,0E0,0E0,0E0,0E0,0E0,0E0,0E0],"parents":[2147483647,0,0,1,1,2,2,3,3,4,4,5,5,6,6],"right_children":[2,4,6,8,10,12,14,-1,-1,-1,-1,-1,-1,-1,-1],"split_conditions":[4.034791E-1,3.122532E-1,4.3282327E-1,2.2287852E-1,3.49938E-1,2E0,4.6227413E-1,-1.0681709E-4,5.762626E-4,-1.0172813E-3,-0E0,-0E0,7.6542114E-4,-2.1340958E-4,1.4467326E-4],"split_indices":[5,6,10,8,6,0,7,0,0,0,0,0,0,0,0],"split_type":[0,0,0,0,0,0,0,0,0,0,0,0,0,0,0],"sum_hessian":[2.88E2,2.32E2,5.6E1,1.94E2,3.8E1,2.7E1,2.9E1,1.67E2,2.7E1,1.3E1,2.5E1,2E0,2.5E1,1.7E1,1.2E1],"tree_param":{"num_deleted":"0","num_feature":"14","num_nodes":"15","size_leaf_vector":"1"}},{"base_weights":[-0E0,-1.1847108E-3,1.2573086E-3,-3.6729558E-3,-0E0,3.195917E-3,-0E0,-3.9548372E-4,-0E0,-0E0,-1.03916704E-4,-0E0,8.064501E-4,-7.144361E-4,4.011229E-5],"categories":[],"categories_nodes":[],"categories_segments":[],"categories_sizes":[],"default_left":[0,0,0,0,0,0,0,0,0,0,0,0,0,0,0],"id":54,"left_children":[1,3,5,7,9,11,13,-1,-1,-1,-1,-1,-1,-1,-1],"loss_changes":[4.3184642E-4,9.9752986E-5,5.44726E-4,1.8171588E-5,7.7750505E-5,8.59863E-4,6.213522E-4,0E0,0E0,0E0,0E0,0E0,0E0,0E0,0E0],"parents":[2147483647,0,0,1,1,2,2,3,3,4,4,5,5,6,6],"right_children":[2,4,6,8,10,12,14,-1,-1,-1,-1,-1,-1,-1,-1],"split_conditions":[1.7356932E-1,3.7512418E-2,3.7892509E-1,4.034052E-2,7.064927E-2,3.0160165E-1,3.946664E-1,-3.9548372E-4,-0E0,-0E0,-1.03916704E-4,-0E0,8.064501E-4,-7.144361E-4,4.011229E-5],"split_indices":[3,5,12,6,8,12,13,0,0,0,0,0,0,0,0],"split_type":[0,0,0,0,0,0,0,0,0,0,0,0,0,0,0],"sum_hessian":[2.88E2,1.49E2,1.39E2,2.2E1,1.27E2,7.4E1,6.5E1,2E1,2E0,5.6E1,7.1E1,5E1,2.4E1,1.1E1,5.4E1],"tree_param":{"num_deleted":"0","num_feature":"14","num_nodes":"15","size_leaf_vector":"1"}},{"base_weights":[-0E0,-3.3237642E-4,4.2548203E-3,-0E0,-3.9039308E-3,-0E0,5.576652E-3,-7.271119E-5,7.009375E-4,-1.0316656E-3,-0E0,6.9555396E-4,-0E0],"categories":[],"categories_nodes":[],"categories_segments":[],"categories_sizes":[],"default_left":[0,0,0,0,0,0,0,0,0,0,0,0,0],"id":55,"left_children":[1,3,5,7,9,-1,11,-1,-1,-1,-1,-1,-1],"loss_changes":[4.09891E-4,3.8178067E-4,2.4180746E-4,1.3440668E-3,1.5043028E-3,0E0,1.520915E-4,0E0,0E0,0E0,0E0,0E0,0E0],"parents":[2147483647,0,0,1,1,2,2,3,3,4,4,6,6],"right_children":[2,4,6,8,10,-1,12,-1,-1,-1,-1,-1,-1],"split_conditions":[4.5710638E-1,4.2402288E-1,3.8512722E-1,3.946664E-1,9E0,-0E0,4.807697E-1,-7.271119E-5,7.009375E-4,-1.0316656E-3,-0E0,6.9555396E-4,-0E0],"split_indices":[7,8,8,4,0,0,3,0,0,0,0,0,0],"split_type":[0,0,0,0,0,0,0,0,0,0,0,0,0],"sum_hessian":[2.88E2,2.68E2,2E1,2.42E2,2.6E1,1E0,1.9E1,2.18E2,2.4E1,1.7E1,9E0,1.5E1,4E0],"tree_param":{"num_deleted":"0","num_feature":"14","num_nodes":"13","size_leaf_vector":"1"}},{"base_weights":[-0E0,-2.5586197E-3,5.4542744E-4,-3.5666935E-3,-0E0,-2.1218366E-5,2.5785933E-3,-3.7422258E-4,-0E0,-0E0,-2.0340795E-4,7.269263E-4,-0E0],"categories":[],"categories_nodes":[],"categories_segments":[],"categories_sizes":[],"default_left":[0,0,0,0,0,0,0,0,0,0,0,0,0],"id":56,"left_children":[1,3,5,7,-1,9,11,-1,-1,-1,-1,-1,-1],"loss_changes":[3.9247551E-4,2.0079329E-4,5.334447E-4,3.8596685E-5,0E0,1.2819387E-4,1.2444048E-3,0E0,0E0,0E0,0E0,0E0,0E0],"parents":[2147483647,0,0,1,1,2,2,3,3,5,5,6,6],"right_children":[2,4,6,8,-1,10,12,-1,-1,-1,-1,-1,-1],"split_conditions":[3E0,4.140773E-1,2.009E3,4.6378466E-1,-0E0,1.1E1,3.7892509E-1,-3.7422258E-4,-0E0,-0E0,-2.0340795E-4,7.269263E-4,-0E0],"split_indices":[0,8,1,3,0,0,12,0,0,0,0,0,0],"split_type":[0,0,0,0,0,0,0,0,0,0,0,0,0],"sum_hessian":[2.88E2,4.8E1,2.4E2,4E1,8E0,1.5E2,9E1,3.9E1,1E0,1.2E2,3E1,3.4E1,5.6E1],"tree_param":{"num_deleted":"0","num_feature":"14","num_nodes":"13","size_leaf_vector":"1"}},{"base_weights":[-0E0,-3.4510047E-4,3.5832028E-3,-2.4255023E-3,-0E0,-0E0,4.9822135E-3,-3.2217742E-4,-0E0,4.0185732E-5,-3.4193482E-4,-0E0,5.7426904E-4],"categories":[],"categories_nodes":[],"categories_segments":[],"categories_sizes":[],"default_left":[0,0,0,0,0,0,0,0,0,0,0,0,0],"id":57,"left_children":[1,3,5,7,9,-1,11,-1,-1,-1,-1,-1,-1],"loss_changes":[3.652638E-4,2.2153072E-4,1.626261E-4,1.6222152E-4,2.6662118E-4,0E0,9.716384E-5,0E0,0E0,0E0,0E0,0E0,0E0],"parents":[2147483647,0,0,1,1,2,2,3,3,4,4,6,6],"right_children":[2,4,6,8,10,-1,12,-1,-1,-1,-1,-1,-1],"split_conditions":[4.524435E-1,3E0,3E0,4.2642823E-1,4.3282327E-1,-0E0,3.4069434E-1,-3.2217742E-4,-0E0,4.0185732E-5,-3.4193482E-4,-0E0,5.7426904E-4],"split_indices":[3,0,0,2,2,0,13,0,0,0,0,0,0],"split_type":[0,0,0,0,0,0,0,0,0,0,0,0,0],"sum_hessian":[2.88E2,2.63E2,2.5E1,4.2E1,2.21E2,6E0,1.9E1,3.9E1,3E0,2.02E2,1.9E1,2E0,1.7E1],"tree_param":{"num_deleted":"0","num_feature":"14","num_nodes":"13","size_leaf_vector":"1"}},{"base_weights":[-0E0,-3.1321257E-4,3.3048755E-3,-0E0,-2.533762E-3,5.382729E-3,-0E0,-4.8797032E-5,6.0418784E-4,-7.3303643E-4,3.431531E-4,8.9535577E-4,-0E0],"categories":[],"categories_nodes":[],"categories_segments":[],"categories_sizes":[],"default_left":[0,0,0,0,0,0,0,0,0,0,0,0,0],"id":58,"left_children":[1,3,5,7,9,11,-1,-1,-1,-1,-1,-1,-1],"loss_changes":[3.098762E-4,2.5657887E-4,3.2447197E-4,8.1445125E-4,1.6740155E-3,2.733788E-4,0E0,0E0,0E0,0E0,0E0,0E0,0E0],"parents":[2147483647,0,0,1,1,2,2,3,3,4,4,5,5],"right_children":[2,4,6,8,10,12,-1,-1,-1,-1,-1,-1,-1],"split_conditions":[4.4749328E-1,3.7892509E-1,4.7858194E-1,3.3639678E-1,4.524435E-1,4.5479137E-1,-0E0,-4.8797032E-5,6.0418784E-4,-7.3303643E-4,3.431531E-4,8.9535577E-4,-0E0],"split_indices":[6,11,13,6,7,5,0,0,0,0,0,0,0],"split_type":[0,0,0,0,0,0,0,0,0,0,0,0,0],"sum_hessian":[2.88E2,2.63E2,2.5E1,2.2E2,4.3E1,2E1,5E0,2E2,2E1,3.3E1,1E1,1E1,1E1],"tree_param":{"num_deleted":"0","num_feature":"14","num_nodes":"13","size_leaf_vector":"1"}},{"base_weights":[-0E0,-4.5014947E-4,2.0632376E-3,-0E0,-3.4246992E-3,4.2413026E-3,-0E0,-5.61074E-5,6.041257E-4,-9.224131E-4,-0E0,-0E0,7.487056E-4,-0E0,-7.5306845E-5],"categories":[],"categories_nodes":[],"categories_segments":[],"categories_sizes":[],"default_left":[0,0,0,0,0,0,0,0,0,0,0,0,0,0,0],"id":59,"left_children":[1,3,5,7,9,11,13,-1,-1,-1,-1,-1,-1,-1,-1],"loss_changes":[2.8985998E-4,4.102002E-4,4.049451E-4,8.2152314E-4,7.337702E-4,7.538088E-4,8.506681E-6,0E0,0E0,0E0,0E0,0E0,0E0,0E0,0E0],"parents":[2147483647,0,0,1,1,2,2,3,3,4,4,5,5,6,6],"right_children":[2,4,6,8,10,12,14,-1,-1,-1,-1,-1,-1,-1,-1],"split_conditions":[4.034791E-1,3.122532E-1,4.4749328E-1,2.532119E-1,3.49938E-1,5E0,4.3706748E-1,-5.61074E-5,6.041257E-4,-9.224131E-4,-0E0,-0E0,7.487056E-4,-0E0,-7.5306845E-5],"split_indices":[5,6,10,4,6,0,2,0,0,0,0,0,0,0,0],"split_type":[0,0,0,0,0,0,0,0,0,0,0,0,0,0,0],"sum_hessian":[2.88E2,2.32E2,5.6E1,1.94E2,3.8E1,3.5E1,2.1E1,1.74E2,2E1,1.3E1,2.5E1,1.1E1,2.4E1,7E0,1.4E1],"tree_param":{"num_deleted":"0","num_feature":"14","num_nodes":"15","size_leaf_vector":"1"}},{"base_weights":[-0E0,-3.4643864E-4,2.37008E-3,-1.8563607E-3,-0E0,7.0430217E-3,-0E0,-2.1005378E-4,-0E0,6.825104E-5,-1.2494087E-4,-0E0,9.016933E-4,-5.67893E-4,3.382019E-5],"categories":[],"categories_nodes":[],"categories_segments":[],"categories_sizes":[],"default_left":[0,0,0,0,0,0,0,0,0,0,0,0,0,0,0],"id":60,"left_children":[1,3,5,7,9,11,13,-1,-1,-1,-1,-1,-1,-1,-1],"loss_changes":[2.4919884E-4,2.5934537E-4,6.738009E-4,5.0273607E-5,1.050085E-4,1.6409124E-4,2.2758177E-4,0E0,0E0,0E0,0E0,0E0,0E0,0E0,0E0],"parents":[2147483647,0,0,1,1,2,2,3,3,4,4,5,5,6,6],"right_children":[2,4,6,8,10,12,14,-1,-1,-1,-1,-1,-1,-1,-1],"split_conditions":[4.327494E-1,5E0,4.3282327E-1,2.016E3,3.8140428E-1,3E0,4.3706748E-1,-2.1005378E-4,-0E0,6.825104E-5,-1.2494087E-4,-0E0,9.016933E-4,-5.67893E-4,3.382019E-5],"split_indices":[4,0,2,1,12,0,3,0,0,0,0,0,0,0,0],"split_type":[0,0,0,0,0,0,0,0,0,0,0,0,0,0,0],"sum_hessian":[2.88E2,2.5E2,3.8E1,8.3E1,1.67E2,1.7E1,2.1E1,7.6E1,7E0,1.44E2,2.3E1,5E0,1.2E1,6E0,1.5E1],"tree_param":{"num_deleted":"0","num_feature":"14","num_nodes":"15","size_leaf_vector":"1"}},{"base_weights":[-0E0,-3.06442E-3,2.885677E-4,-3.294934E-3,-0E0,-0E0,2.84295E-3,-0E0,-3.4770172E-4,4.5310906E-5,-1.8724261E-4,-0E0,3.9474425E-4],"categories":[],"categories_nodes":[],"categories_segments":[],"categories_sizes":[],"default_left":[0,0,0,0,0,0,0,0,0,0,0,0,0],"id":61,"left_children":[1,3,5,7,-1,9,11,-1,-1,-1,-1,-1,-1],"loss_changes":[2.3821884E-4,1.2002987E-5,1.8790801E-4,1.7149432E-6,0E0,2.0172067E-4,1.0150457E-4,0E0,0E0,0E0,0E0,0E0,0E0],"parents":[2147483647,0,0,1,1,2,2,3,3,5,5,6,6],"right_children":[2,4,6,8,-1,10,12,-1,-1,-1,-1,-1,-1],"split_conditions":[3.7512418E-2,4.034052E-2,4.524435E-1,1.0347828E-2,-0E0,3.7892509E-1,3E0,-0E0,-3.4770172E-4,4.5310906E-5,-1.8724261E-4,-0E0,3.9474425E-4],"split_indices":[5,6,3,10,0,11,0,0,0,0,0,0,0],"split_type":[0,0,0,0,0,0,0,0,0,0,0,0,0],"sum_hessian":[2.88E2,2.2E1,2.66E2,2E1,2E0,2.41E2,2.5E1,2E0,1.8E1,1.96E2,4.5E1,6E0,1.9E1],"tree_param":{"num_deleted":"0","num_feature":"14","num_nodes":"13","size_leaf_vector":"1"}},{"base_weights":[-0E0,-1.2065357E-3,6.316267E-4,-1.4600639E-3,-0E0,1.4982884E-3,-0E0,-1.6132604E-4,-0E0,-0E0,4.6445077E-4,-4.6392513E-4,8.253369E-5],"categories":[],"categories_nodes":[],"categories_segments":[],"categories_sizes":[],"default_left":[0,0,0,0,0,0,0,0,0,0,0,0,0],"id":62,"left_children":[1,3,5,7,-1,9,11,-1,-1,-1,-1,-1,-1],"loss_changes":[2.1820347E-4,5.4918666E-5,2.4850806E-4,3.5507852E-5,0E0,6.0206646E-4,5.550957E-4,0E0,0E0,0E0,0E0,0E0,0E0],"parents":[2147483647,0,0,1,1,2,2,3,3,5,5,6,6],"right_children":[2,4,6,8,-1,10,12,-1,-1,-1,-1,-1,-1],"split_conditions":[2.002E3,9.1303885E-2,2.014E3,8.426851E-2,-0E0,3.3639678E-1,2.016E3,-1.6132604E-4,-0E0,-0E0,4.6445077E-4,-4.6392513E-4,8.253369E-5],"split_indices":[1,2,1,3,0,6,1,0,0,0,0,0,0],"split_type":[0,0,0,0,0,0,0,0,0,0,0,0,0],"sum_hessian":[2.88E2,9.6E1,1.92E2,9.1E1,5E0,1.44E2,4.8E1,8.8E1,3E0,1.02E2,4.2E1,2.4E1,2.4E1],"tree_param":{"num_deleted":"0","num_feature":"14","num_nodes":"13","size_leaf_vector":"1"}},{"base_weights":[-0E0,-2.6379938E-3,2.5988033E-4,-2.8432603E-4,-0E0,-4.3649875E-4,8.5345487E-4,-1.1065261E-4,-0E0,1.3429401E-4,-0E0],"categories":[],"categories_nodes":[],"categories_segments":[],"categories_sizes":[],"default_left":[0,0,0,0,0,0,0,0,0,0,0],"id":63,"left_children":[1,3,5,-1,-1,7,9,-1,-1,-1,-1],"loss_changes":[1.7808985E-4,9.70946E-6,1.5243336E-4,0E0,0E0,3.776277E-5,2.0621001E-4,0E0,0E0,0E0,0E0],"parents":[2147483647,0,0,1,1,2,2,5,5,6,6],"right_children":[2,4,6,-1,-1,8,10,-1,-1,-1,-1],"split_conditions":[3.7512418E-2,4.034052E-2,3E0,-2.8432603E-4,-0E0,4.140773E-1,4.5054305E-1,-1.1065261E-4,-0E0,1.3429401E-4,-0E0],"split_indices":[5,6,0,0,0,8,10,0,0,0,0],"split_type":[0,0,0,0,0,0,0,0,0,0,0],"sum_hessian":[2.88E2,2.2E1,2.66E2,2E1,2E0,4.5E1,2.21E2,3.7E1,8E0,2.03E2,1.8E1],"tree_param":{"num_deleted":"0","num_feature":"14","num_nodes":"11","size_leaf_vector":"1"}},{"base_weights":[-0E0,-2.2310455E-4,2.884338E-3,-0E0,-2.214133E-3,3.9671035E-3,-0E0,-3.793288E-5,5.8400654E-4,-5.9007027E-4,3.6034733E-5,-0E0,4.8017726E-4],"categories":[],"categories_nodes":[],"categories_segments":[],"categories_sizes":[],"default_left":[0,0,0,0,0,0,0,0,0,0,0,0,0],"id":64,"left_children":[1,3,5,7,9,11,-1,-1,-1,-1,-1,-1,-1],"loss_changes":[1.6328826E-4,2.3648267E-4,7.0581475E-5,7.792619E-4,1.0402028E-3,7.9410485E-5,0E0,0E0,0E0,0E0,0E0,0E0,0E0],"parents":[2147483647,0,0,1,1,2,2,3,3,4,4,5,5],"right_children":[2,4,6,8,10,12,-1,-1,-1,-1,-1,-1,-1],"split_conditions":[4.6227413E-1,3.7892509E-1,4.807697E-1,3.3639678E-1,4.4749328E-1,3.9987522E-1,-0E0,-3.793288E-5,5.8400654E-4,-5.9007027E-4,3.6034733E-5,-0E0,4.8017726E-4],"split_indices":[7,11,3,6,6,3,0,0,0,0,0,0,0],"split_type":[0,0,0,0,0,0,0,0,0,0,0,0,0],"sum_hessian":[2.88E2,2.71E2,1.7E1,2.21E2,5E1,1.3E1,4E0,2E2,2.1E1,3.6E1,1.4E1,1E0,1.2E1],"tree_param":{"num_deleted":"0","num_feature":"14","num_nodes":"13","size_leaf_vector":"1"}},{"base_weights":[-0E0,-1.0336351E-3,5.274328E-4,-1.2725291E-3,-0E0,1.2883756E-3,-0E0,-1.416156E-4,-0E0,-0E0,4.755679E-4,-4.8693153E-4,4.5098986E-6],"categories":[],"categories_nodes":[],"categories_segments":[],"categories_sizes":[],"default_left":[0,0,0,0,0,0,0,0,0,0,0,0,0],"id":65,"left_children":[1,3,5,7,-1,9,11,-1,-1,-1,-1,-1,-1],"loss_changes":[1.5732473E-4,4.5343462E-5,1.8201767E-4,2.9510891E-5,0E0,5.558694E-4,4.0314713E-4,0E0,0E0,0E0,0E0,0E0,0E0],"parents":[2147483647,0,0,1,1,2,2,3,3,5,5,6,6],"right_children":[2,4,6,8,-1,10,12,-1,-1,-1,-1,-1,-1],"split_conditions":[2.002E3,9.1303885E-2,4.034791E-1,8.426851E-2,-0E0,3.253922E-1,4.152102E-1,-1.416156E-4,-0E0,-0E0,4.755679E-4,-4.8693153E-4,4.5098986E-6],"split_indices":[1,2,12,3,0,9,13,0,0,0,0,0,0],"split_type":[0,0,0,0,0,0,0,0,0,0,0,0,0],"sum_hessian":[2.88E2,9.6E1,1.92E2,9.1E1,5E0,1.41E2,5.1E1,8.8E1,3E0,1.07E2,3.4E1,1.6E1,3.5E1],"tree_param":{"num_deleted":"0","num_feature":"14","num_nodes":"13","size_leaf_vector":"1"}},{"base_weights":[-0E0,-2.719065E-4,1.8899301E-3,-0E0,-2.119723E-3,5.8731376E-3,-0E0,-3.406162E-5,5.3420727E-4,-9.296261E-4,-0E0,-0E0,7.214597E-4,-8.480398E-4,-0E0],"categories":[],"categories_nodes":[],"categories_segments":[],"categories_sizes":[],"default_left":[0,0,0,0,0,0,0,0,0,0,0,0,0,0,0],"id":66,"left_children":[1,3,5,7,9,11,13,-1,-1,-1,-1,-1,-1,-1,-1],"loss_changes":[1.5785881E-4,2.3755664E-4,5.85067E-4,6.1959587E-4,8.6735224E-4,1.6048824E-4,3.595858E-4,0E0,0E0,0E0,0E0,0E0,0E0,0E0,0E0],"parents":[2147483647,0,0,1,1,2,2,3,3,4,4,5,5,6,6],"right_children":[2,4,6,8,10,12,14,-1,-1,-1,-1,-1,-1,-1,-1],"split_conditions":[4.327494E-1,3.122532E-1,4.4749328E-1,2.532119E-1,3.49938E-1,4.127351E-1,4.3706748E-1,-3.406162E-5,5.3420727E-4,-9.296261E-4,-0E0,-0E0,7.214597E-4,-8.480398E-4,-0E0],"split_indices":[4,6,2,4,6,5,3,0,0,0,0,0,0,0,0],"split_type":[0,0,0,0,0,0,0,0,0,0,0,0,0,0,0],"sum_hessian":[2.88E2,2.5E2,3.8E1,1.94E2,5.6E1,2E1,1.8E1,1.74E2,2E1,1.2E1,4.4E1,4E0,1.6E1,4E0,1.4E1],"tree_param":{"num_deleted":"0","num_feature":"14","num_nodes":"15","size_leaf_vector":"1"}},{"base_weights":[-0E0,-1.5884197E-3,3.383337E-4,-2.3629349E-3,-0E0,-0E0,1.7168279E-3,-2.4809953E-4,-0E0,-0E0,-1.6531615E-4,5.4269284E-4,-0E0],"categories":[],"categories_nodes":[],"categories_segments":[],"categories_sizes":[],"default_left":[0,0,0,0,0,0,0,0,0,0,0,0,0],"id":67,"left_children":[1,3,5,7,-1,9,11,-1,-1,-1,-1,-1,-1],"loss_changes":[1.5121796E-4,1.05291154E-4,2.4063513E-4,1.7291575E-5,0E0,8.472122E-5,7.625822E-4,0E0,0E0,0E0,0E0,0E0,0E0],"parents":[2147483647,0,0,1,1,2,2,3,3,5,5,6,6],"right_children":[2,4,6,8,-1,10,12,-1,-1,-1,-1,-1,-1],"split_conditions":[3E0,4.140773E-1,2.009E3,4.6378466E-1,-0E0,1.1E1,3.7892509E-1,-2.4809953E-4,-0E0,-0E0,-1.6531615E-4,5.4269284E-4,-0E0],"split_indices":[0,8,1,3,0,0,12,0,0,0,0,0,0],"split_type":[0,0,0,0,0,0,0,0,0,0,0,0,0],"sum_hessian":[2.88E2,4.8E1,2.4E2,4E1,8E0,1.5E2,9E1,3.9E1,1E0,1.2E2,3E1,3.4E1,5.6E1],"tree_param":{"num_deleted":"0","num_feature":"14","num_nodes":"13","size_leaf_vector":"1"}},{"base_weights":[-0E0,-2.5179778E-4,1.6177103E-3,-0E0,-2.0253907E-3,5.2717724E-3,-0E0,-2.5779065E-5,4.636162E-4,-4.6727425E-4,-0E0,-0E0,6.471734E-4,-7.9105183E-4,-0E0],"categories":[],"categories_nodes":[],"categories_segments":[],"categories_sizes":[],"default_left":[0,0,0,0,0,0,0,0,0,0,0,0,0,0,0],"id":68,"left_children":[1,3,5,7,9,11,13,-1,-1,-1,-1,-1,-1,-1,-1],"loss_changes":[1.1797642E-4,2.1791192E-4,4.8156077E-4,4.6300373E-4,7.268932E-4,1.2839341E-4,3.128815E-4,0E0,0E0,0E0,0E0,0E0,0E0,0E0,0E0],"parents":[2147483647,0,0,1,1,2,2,3,3,4,4,5,5,6,6],"right_children":[2,4,6,8,10,12,14,-1,-1,-1,-1,-1,-1,-1,-1],"split_conditions":[4.327494E-1,3.122532E-1,4.4749328E-1,2.532119E-1,4.4125012E-1,4.127351E-1,4.3706748E-1,-2.5779065E-5,4.636162E-4,-4.6727425E-4,-0E0,-0E0,6.471734E-4,-7.9105183E-4,-0E0],"split_indices":[4,6,2,4,2,5,3,0,0,0,0,0,0,0,0],"split_type":[0,0,0,0,0,0,0,0,0,0,0,0,0,0,0],"sum_hessian":[2.88E2,2.5E2,3.8E1,1.94E2,5.6E1,2E1,1.8E1,1.74E2,2E1,4.3E1,1.3E1,4E0,1.6E1,4E0,1.4E1],"tree_param":{"num_deleted":"0","num_feature":"14","num_nodes":"15","size_leaf_vector":"1"}},{"base_weights":[-0E0,-1.4033646E-3,3.1854596E-4,-2.08564E-3,-0E0,-0E0,1.8290562E-3,-2.196768E-4,-0E0,-0E0,-2.6378504E-4,5.714649E-4,-0E0],"categories":[],"categories_nodes":[],"categories_segments":[],"categories_sizes":[],"default_left":[0,0,0,0,0,0,0,0,0,0,0,0,0],"id":69,"left_children":[1,3,5,7,-1,9,11,-1,-1,-1,-1,-1,-1],"loss_changes":[1.2095682E-4,8.184347E-5,2.2310842E-4,1.4685938E-5,0E0,1.18290336E-4,7.6481054E-4,0E0,0E0,0E0,0E0,0E0,0E0],"parents":[2147483647,0,0,1,1,2,2,3,3,5,5,6,6],"right_children":[2,4,6,8,-1,10,12,-1,-1,-1,-1,-1,-1],"split_conditions":[3E0,4.140773E-1,3.1778628E-1,4.6378466E-1,-0E0,2.5700048E-1,4.034791E-1,-2.196768E-4,-0E0,-0E0,-2.6378504E-4,5.714649E-4,-0E0],"split_indices":[0,8,9,3,0,11,12,0,0,0,0,0,0],"split_type":[0,0,0,0,0,0,0,0,0,0,0,0,0],"sum_hessian":[2.88E2,4.8E1,2.4E2,4E1,8E0,1.67E2,7.3E1,3.9E1,1E0,1.51E2,1.6E1,3E1,4.3E1],"tree_param":{"num_deleted":"0","num_feature":"14","num_nodes":"13","size_leaf_vector":"1"}},{"base_weights":[-0E0,-2.0863824E-3,1.9339158E-4,-2.7420852E-4,-0E0,-0E0,6.83016E-4,-4.4053628E-5,-0E0,1.16808566E-4,-0E0],"categories":[],"categories_nodes":[],"categories_segments":[],"categories_sizes":[],"default_left":[0,0,0,0,0,0,0,0,0,0,0],"id":70,"left_children":[1,3,5,-1,-1,7,9,-1,-1,-1,-1],"loss_changes":[1.1010469E-4,1.2666664E-5,9.357954E-5,0E0,0E0,7.3747437E-6,1.7204823E-4,0E0,0E0,0E0,0E0],"parents":[2147483647,0,0,1,1,2,2,5,5,6,6],"right_children":[2,4,6,-1,-1,8,10,-1,-1,-1,-1],"split_conditions":[3.7512418E-2,2.30271E-2,3E0,-2.7420852E-4,-0E0,4.140773E-1,4.4749328E-1,-4.4053628E-5,-0E0,1.16808566E-4,-0E0],"split_indices":[5,12,0,0,0,8,10,0,0,0,0],"split_type":[0,0,0,0,0,0,0,0,0,0,0],"sum_hessian":[2.88E2,2.2E1,2.66E2,1.4E1,8E0,4.5E1,2.21E2,3.7E1,8E0,2.01E2,2E1],"tree_param":{"num_deleted":"0","num_feature":"14","num_nodes":"11","size_leaf_vector":"1"}},{"base_weights":[-0E0,-2.4067724E-4,1.6709194E-3,-0E0,-1.5628048E-3,-0E0,2.847334E-3,-3.4268473E-5,3.5522212E-4,-8.074913E-4,-0E0,-0E0,3.4419473E-4],"categories":[],"categories_nodes":[],"categories_segments":[],"categories_sizes":[],"default_left":[0,0,0,0,0,0,0,0,0,0,0,0,0],"id":71,"left_children":[1,3,5,7,9,-1,11,-1,-1,-1,-1,-1,-1],"loss_changes":[9.608574E-5,1.4851947E-4,9.7393655E-5,3.7304038E-4,6.8401697E-4,0E0,5.85792E-5,0E0,0E0,0E0,0E0,0E0,0E0],"parents":[2147483647,0,0,1,1,2,2,3,3,4,4,6,6],"right_children":[2,4,6,8,10,-1,12,-1,-1,-1,-1,-1,-1],"split_conditions":[4.4749328E-1,3.122532E-1,3E0,2.2287852E-1,3.49938E-1,-0E0,3.4069434E-1,-3.4268473E-5,3.5522212E-4,-8.074913E-4,-0E0,-0E0,3.4419473E-4],"split_indices":[3,6,0,8,6,0,13,0,0,0,0,0,0],"split_type":[0,0,0,0,0,0,0,0,0,0,0,0,0],"sum_hessian":[2.88E2,2.6E2,2.8E1,1.94E2,6.6E1,7E0,2.1E1,1.67E2,2.7E1,1.2E1,5.4E1,2E0,1.9E1],"tree_param":{"num_deleted":"0","num_feature":"14","num_nodes":"13","size_leaf_vector":"1"}},{"base_weights":[-0E0,-1.8866945E-3,1.060532E-4,-2.4541738E-4,-0E0,-0E0,5.6589843E-4,-3.6998983E-5,-0E0,1.0455981E-4,-0E0],"categories":[],"categories_nodes":[],"categories_segments":[],"categories_sizes":[],"default_left":[0,0,0,0,0,0,0,0,0,0,0],"id":72,"left_children":[1,3,5,-1,-1,7,9,-1,-1,-1,-1],"loss_changes":[8.487419E-5,8.473369E-6,6.809048E-5,0E0,0E0,5.201913E-6,1.4974811E-4,0E0,0E0,0E0,0E0],"parents":[2147483647,0,0,1,1,2,2,5,5,6,6],"right_children":[2,4,6,-1,-1,8,10,-1,-1,-1,-1],"split_conditions":[3.7512418E-2,2.30271E-2,3E0,-2.4541738E-4,-0E0,4.140773E-1,4.4749328E-1,-3.6998983E-5,-0E0,1.0455981E-4,-0E0],"split_indices":[5,12,0,0,0,8,10,0,0,0,0],"split_type":[0,0,0,0,0,0,0,0,0,0,0],"sum_hessian":[2.88E2,2.2E1,2.66E2,1.4E1,8E0,4.5E1,2.21E2,3.7E1,8E0,2.01E2,2E1],"tree_param":{"num_deleted":"0","num_feature":"14","num_nodes":"11","size_leaf_vector":"1"}},{"base_weights":[-0E0,-2.5571013E-4,1.7855845E-3,-0E0,-3.082561E-3,-0E0,2.9525128E-3,-4.3222706E-5,4.3640338E-4,-8.779022E-4,-0E0,3.966363E-4,-0E0],"categories":[],"categories_nodes":[],"categories_segments":[],"categories_sizes":[],"default_left":[0,0,0,0,0,0,0,0,0,0,0,0,0],"id":73,"left_children":[1,3,5,7,9,-1,11,-1,-1,-1,-1,-1,-1],"loss_changes":[8.454384E-5,2.3896963E-4,1.0739207E-4,5.170334E-4,1.1307232E-3,0E0,7.736591E-5,0E0,0E0,0E0,0E0,0E0,0E0],"parents":[2147483647,0,0,1,1,2,2,3,3,4,4,6,6],"right_children":[2,4,6,8,10,-1,12,-1,-1,-1,-1,-1,-1],"split_conditions":[4.5710638E-1,4.2402288E-1,3.8512722E-1,3.946664E-1,9E0,-0E0,4.807697E-1,-4.3222706E-5,4.3640338E-4,-8.779022E-4,-0E0,3.966363E-4,-0E0],"split_indices":[7,8,8,4,0,0,3,0,0,0,0,0,0],"split_type":[0,0,0,0,0,0,0,0,0,0,0,0,0],"sum_hessian":[2.88E2,2.68E2,2E1,2.42E2,2.6E1,1E0,1.9E1,2.18E2,2.4E1,1.7E1,9E0,1.5E1,4E0],"tree_param":{"num_deleted":"0","num_feature":"14","num_nodes":"13","size_leaf_vector":"1"}},{"base_weights":[-0E0,-2.3559314E-4,1.4935259E-3,-0E0,-1.9963647E-3,2.969266E-3,-0E0,-2.78964E-5,3.891201E-4,-5.9020816E-4,5.773871E-5,5.891002E-4,-0E0],"categories":[],"categories_nodes":[],"categories_segments":[],"categories_sizes":[],"default_left":[0,0,0,0,0,0,0,0,0,0,0,0,0],"id":74,"left_children":[1,3,5,7,9,11,-1,-1,-1,-1,-1,-1,-1],"loss_changes":[7.26492E-5,1.6070766E-4,1.5360085E-4,3.3361235E-4,9.781806E-4,2.3955374E-4,0E0,0E0,0E0,0E0,0E0,0E0,0E0],"parents":[2147483647,0,0,1,1,2,2,3,3,4,4,5,5],"right_children":[2,4,6,8,10,12,-1,-1,-1,-1,-1,-1,-1],"split_conditions":[4.4749328E-1,3.7892509E-1,5.0534016E-1,3.3639678E-1,4.4796944E-1,4.5479137E-1,-0E0,-2.78964E-5,3.891201E-4,-5.9020816E-4,5.773871E-5,5.891002E-4,-0E0],"split_indices":[6,11,13,6,7,5,0,0,0,0,0,0,0],"split_type":[0,0,0,0,0,0,0,0,0,0,0,0,0],"sum_hessian":[2.88E2,2.63E2,2.5E1,2.2E2,4.3E1,2.3E1,2E0,2E2,2E1,3.2E1,1.1E1,1.2E1,1.1E1],"tree_param":{"num_deleted":"0","num_feature":"14","num_nodes":"13","size_leaf_vector":"1"}},{"base_weights":[-0E0,-2.105172E-4,1.3985806E-3,-0E0,-1.4388721E-3,-0E0,2.523304E-3,-2.1727798E-5,3.7849086E-4,-7.2007655E-4,-0E0,-0E0,3.0173358E-4],"categories":[],"categories_nodes":[],"categories_segments":[],"categories_sizes":[],"default_left":[0,0,0,0,0,0,0,0,0,0,0,0,0],"id":75,"left_children":[1,3,5,7,9,-1,11,-1,-1,-1,-1,-1,-1],"loss_changes":[6.8291665E-5,1.2714676E-4,8.335059E-5,3.0909793E-4,5.353497E-4,0E0,4.20109E-5,0E0,0E0,0E0,0E0,0E0,0E0],"parents":[2147483647,0,0,1,1,2,2,3,3,4,4,6,6],"right_children":[2,4,6,8,10,-1,12,-1,-1,-1,-1,-1,-1],"split_conditions":[4.4749328E-1,3.122532E-1,3E0,2.532119E-1,3.49938E-1,-0E0,3.4069434E-1,-2.1727798E-5,3.7849086E-4,-7.2007655E-4,-0E0,-0E0,3.0173358E-4],"split_indices":[3,6,0,4,6,0,13,0,0,0,0,0,0],"split_type":[0,0,0,0,0,0,0,0,0,0,0,0,0],"sum_hessian":[2.88E2,2.6E2,2.8E1,1.94E2,6.6E1,7E0,2.1E1,1.74E2,2E1,1.2E1,5.4E1,2E0,1.9E1],"tree_param":{"num_deleted":"0","num_feature":"14","num_nodes":"13","size_leaf_vector":"1"}},{"base_weights":[-0E0,-1.1364169E-3,1.5167256E-4,-1.7255596E-3,-0E0,6.252028E-4,-0E0,-1.9736766E-4,-0E0,-0E0,3.9796188E-4,-4.2873583E-4,-0E0],"categories":[],"categories_nodes":[],"categories_segments":[],"categories_sizes":[],"default_left":[0,0,0,0,0,0,0,0,0,0,0,0,0],"id":76,"left_children":[1,3,5,7,-1,9,11,-1,-1,-1,-1,-1,-1],"loss_changes":[6.5019514E-5,4.77856E-5,7.021733E-5,2.914697E-5,0E0,3.5177838E-4,3.1248448E-4,0E0,0E0,0E0,0E0,0E0,0E0],"parents":[2147483647,0,0,1,1,2,2,3,3,5,5,6,6],"right_children":[2,4,6,8,-1,10,12,-1,-1,-1,-1,-1,-1],"split_conditions":[5.1915642E-2,1.1E1,4.0634415E-1,5.9677538E-2,-0E0,3.42603E-1,4.2642823E-1,-1.9736766E-4,-0E0,-0E0,3.9796188E-4,-4.2873583E-4,-0E0],"split_indices":[10,0,12,9,0,13,13,0,0,0,0,0,0],"split_type":[0,0,0,0,0,0,0,0,0,0,0,0,0],"sum_hessian":[2.88E2,4.5E1,2.43E2,3.5E1,1E1,1.93E2,5E1,3.4E1,1E0,1.67E2,2.6E1,1.6E1,3.4E1],"tree_param":{"num_deleted":"0","num_feature":"14","num_nodes":"13","size_leaf_vector":"1"}},{"base_weights":[-0E0,-2.1278473E-4,1.0606515E-3,-0E0,-1.7016435E-3,4.512819E-3,-0E0,-2.2987764E-5,2.9358626E-4,-4.0052572E-4,-0E0,-0E0,5.5940484E-4,-6.8293436E-4,-0E0],"categories":[],"categories_nodes":[],"categories_segments":[],"categories_sizes":[],"default_left":[0,0,0,0,0,0,0,0,0,0,0,0,0,0,0],"id":77,"left_children":[1,3,5,7,9,11,13,-1,-1,-1,-1,-1,-1,-1,-1],"loss_changes":[5.5238896E-5,1.5368406E-4,3.83802E-4,2.5021788E-4,5.4080307E-4,1.0431107E-4,2.3319968E-4,0E0,0E0,0E0,0E0,0E0,0E0,0E0,0E0],"parents":[2147483647,0,0,1,1,2,2,3,3,4,4,5,5,6,6],"right_children":[2,4,6,8,10,12,14,-1,-1,-1,-1,-1,-1,-1,-1],"split_conditions":[4.327494E-1,3.122532E-1,4.4749328E-1,2.2287852E-1,4.4125012E-1,4.127351E-1,4.3706748E-1,-2.2987764E-5,2.9358626E-4,-4.0052572E-4,-0E0,-0E0,5.5940484E-4,-6.8293436E-4,-0E0],"split_indices":[4,6,2,8,2,5,3,0,0,0,0,0,0,0,0],"split_type":[0,0,0,0,0,0,0,0,0,0,0,0,0,0,0],"sum_hessian":[2.88E2,2.5E2,3.8E1,1.94E2,5.6E1,2E1,1.8E1,1.67E2,2.7E1,4.3E1,1.3E1,4E0,1.6E1,4E0,1.4E1],"tree_param":{"num_deleted":"0","num_feature":"14","num_nodes":"15","size_leaf_vector":"1"}},{"base_weights":[-0E0,-9.802761E-4,1.7803023E-4,-1.6061962E-3,-0E0,-0E0,1.3885811E-3,-1.6867257E-4,-0E0,-0E0,-2.2503256E-4,4.718266E-4,-0E0],"categories":[],"categories_nodes":[],"categories_segments":[],"categories_sizes":[],"default_left":[0,0,0,0,0,0,0,0,0,0,0,0,0],"id":78,"left_children":[1,3,5,7,-1,9,11,-1,-1,-1,-1,-1,-1],"loss_changes":[5.472457E-5,5.868838E-5,1.3504521E-4,8.027244E-6,0E0,8.608741E-5,5.4743944E-4,0E0,0E0,0E0,0E0,0E0,0E0],"parents":[2147483647,0,0,1,1,2,2,3,3,5,5,6,6],"right_children":[2,4,6,8,-1,10,12,-1,-1,-1,-1,-1,-1],"split_conditions":[3E0,4.140773E-1,3.1778628E-1,4.6378466E-1,-0E0,2.5700048E-1,4.034791E-1,-1.6867257E-4,-0E0,-0E0,-2.2503256E-4,4.718266E-4,-0E0],"split_indices":[0,8,9,3,0,11,12,0,0,0,0,0,0],"split_type":[0,0,0,0,0,0,0,0,0,0,0,0,0],"sum_hessian":[2.88E2,4.8E1,2.4E2,4E1,8E0,1.67E2,7.3E1,3.9E1,1E0,1.51E2,1.6E1,3E1,4.3E1],"tree_param":{"num_deleted":"0","num_feature":"14","num_nodes":"13","size_leaf_vector":"1"}},{"base_weights":[-0E0,-1.4500472E-3,9.081199E-5,-1.8304257E-3,-0E0,5.007771E-4,-0E0,-2.0752137E-4,-0E0,-0E0,3.0240955E-4,-3.2716844E-4,-0E0],"categories":[],"categories_nodes":[],"categories_segments":[],"categories_sizes":[],"default_left":[0,0,0,0,0,0,0,0,0,0,0,0,0],"id":79,"left_children":[1,3,5,7,-1,9,11,-1,-1,-1,-1,-1,-1],"loss_changes":[5.0562558E-5,8.597133E-6,5.2718413E-5,7.639894E-6,0E0,3.383213E-4,2.6759796E-4,0E0,0E0,0E0,0E0,0E0,0E0],"parents":[2147483647,0,0,1,1,2,2,3,3,5,5,6,6],"right_children":[2,4,6,8,-1,10,12,-1,-1,-1,-1,-1,-1],"split_conditions":[3.7512418E-2,8E0,2.014E3,4.034052E-2,-0E0,3.3639678E-1,2.016E3,-2.0752137E-4,-0E0,-0E0,3.0240955E-4,-3.2716844E-4,-0E0],"split_indices":[5,0,1,6,0,6,1,0,0,0,0,0,0],"split_type":[0,0,0,0,0,0,0,0,0,0,0,0,0],"sum_hessian":[2.88E2,2.2E1,2.66E2,1.6E1,6E0,2.18E2,4.8E1,1.4E1,2E0,1.76E2,4.2E1,2.4E1,2.4E1],"tree_param":{"num_deleted":"0","num_feature":"14","num_nodes":"13","size_leaf_vector":"1"}},{"base_weights":[-0E0,-1.3237301E-3,7.265133E-5,-1.7870274E-4,-0E0,-0E0,4.696518E-4,9.2732684E-5,-0E0],"categories":[],"categories_nodes":[],"categories_segments":[],"categories_sizes":[],"default_left":[0,0,0,0,0,0,0,0,0],"id":80,"left_children":[1,3,5,-1,-1,-1,7,-1,-1],"loss_changes":[4.17113E-5,7.599985E-6,4.755788E-5,0E0,0E0,0E0,1.2473972E-4,0E0,0E0],"parents":[2147483647,0,0,1,1,2,2,6,6],"right_children":[2,4,6,-1,-1,-1,8,-1,-1],"split_conditions":[3.7512418E-2,2.30271E-2,3E0,-1.7870274E-4,-0E0,-0E0,4.4749328E-1,9.2732684E-5,-0E0],"split_indices":[5,12,0,0,0,0,10,0,0],"split_type":[0,0,0,0,0,0,0,0,0],"sum_hessian":[2.88E2,2.2E1,2.66E2,1.4E1,8E0,4.5E1,2.21E2,2.01E2,2E1],"tree_param":{"num_deleted":"0","num_feature":"14","num_nodes":"9","size_leaf_vector":"1"}},{"base_weights":[-0E0,-8.659985E-4,5.184382E-5,-1.8909283E-3,-0E0,4.9771107E-4,-0E0,-2.6190406E-4,-0E0,-0E0,3.7395497E-4,-2.010016E-4,1.6579565E-5],"categories":[],"categories_nodes":[],"categories_segments":[],"categories_sizes":[],"default_left":[0,0,0,0,0,0,0,0,0,0,0,0,0],"id":81,"left_children":[1,3,5,7,-1,9,11,-1,-1,-1,-1,-1,-1],"loss_changes":[3.5153676E-5,3.7014335E-5,4.4923985E-5,5.1956515E-5,0E0,3.739471E-4,1.6622398E-4,0E0,0E0,0E0,0E0,0E0,0E0],"parents":[2147483647,0,0,1,1,2,2,3,3,5,5,6,6],"right_children":[2,4,6,8,-1,10,12,-1,-1,-1,-1,-1,-1],"split_conditions":[5.1915642E-2,6E0,2.013E3,6.425012E-2,-0E0,3.377308E-1,9E0,-2.6190406E-4,-0E0,-0E0,3.7395497E-4,-2.010016E-4,1.6579565E-5],"split_indices":[10,0,1,5,0,6,0,0,0,0,0,0,0],"split_type":[0,0,0,0,0,0,0,0,0,0,0,0,0],"sum_hessian":[2.88E2,4.5E1,2.43E2,1.9E1,2.6E1,1.83E2,6E1,1.7E1,2E0,1.54E2,2.9E1,4E1,2E1],"tree_param":{"num_deleted":"0","num_feature":"14","num_nodes":"13","size_leaf_vector":"1"}},{"base_weights":[-0E0,-7.718187E-4,4.9579565E-5,-1.3546915E-3,-0E0,-0E0,1.0400059E-3,-1.4213733E-4,-0E0,-0E0,-2.1827155E-4,3.723797E-4,-0E0],"categories":[],"categories_nodes":[],"categories_segments":[],"categories_sizes":[],"default_left":[0,0,0,0,0,0,0,0,0,0,0,0,0],"id":82,"left_children":[1,3,5,7,-1,9,11,-1,-1,-1,-1,-1,-1],"loss_changes":[2.978191E-5,4.6053246E-5,7.94469E-5,5.569338E-6,0E0,8.09922E-5,4.4689386E-4,0E0,0E0,0E0,0E0,0E0,0E0],"parents":[2147483647,0,0,1,1,2,2,3,3,5,5,6,6],"right_children":[2,4,6,8,-1,10,12,-1,-1,-1,-1,-1,-1],"split_conditions":[3E0,4.140773E-1,3.1778628E-1,4.6378466E-1,-0E0,2.5700048E-1,4.2545542E-1,-1.4213733E-4,-0E0,-0E0,-2.1827155E-4,3.723797E-4,-0E0],"split_indices":[0,8,9,3,0,11,8,0,0,0,0,0,0],"split_type":[0,0,0,0,0,0,0,0,0,0,0,0,0],"sum_hessian":[2.88E2,4.8E1,2.4E2,4E1,8E0,1.67E2,7.3E1,3.9E1,1E0,1.51E2,1.6E1,3.7E1,3.6E1],"tree_param":{"num_deleted":"0","num_feature":"14","num_nodes":"13","size_leaf_vector":"1"}},{"base_weights":[-0E0,-1.0825443E-3,-0E0,-1.3752633E-3,-0E0,3.7650336E-4,-0E0,-1.5407518E-4,-0E0,-0E0,3.2469662E-4,-3.4340515E-4,-0E0],"categories":[],"categories_nodes":[],"categories_segments":[],"categories_sizes":[],"default_left":[0,0,0,0,0,0,0,0,0,0,0,0,0],"id":83,"left_children":[1,3,5,7,-1,9,11,-1,-1,-1,-1,-1,-1],"loss_changes":[2.695375E-5,5.1991865E-6,3.0619034E-5,5.829719E-6,0E0,2.4349347E-4,2.3585415E-4,0E0,0E0,0E0,0E0,0E0,0E0],"parents":[2147483647,0,0,1,1,2,2,3,3,5,5,6,6],"right_children":[2,4,6,8,-1,10,12,-1,-1,-1,-1,-1,-1],"split_conditions":[3.7512418E-2,8E0,4.034791E-1,5.5306084E-2,-0E0,3.42603E-1,4.2839435E-1,-1.5407518E-4,-0E0,-0E0,3.2469662E-4,-3.4340515E-4,-0E0],"split_indices":[5,0,12,6,0,13,13,0,0,0,0,0,0],"split_type":[0,0,0,0,0,0,0,0,0,0,0,0,0],"sum_hessian":[2.88E2,2.2E1,2.66E2,1.6E1,6E0,2.15E2,5.1E1,1.5E1,1E0,1.9E2,2.5E1,1.9E1,3.2E1],"tree_param":{"num_deleted":"0","num_feature":"14","num_nodes":"13","size_leaf_vector":"1"}},{"base_weights":[-0E0,-1.91197E-4,6.899348E-4,-0E0,-1.7147615E-3,-0E0,1.6295866E-3,-1.1277248E-5,7.249911E-4,-3.7355893E-4,-0E0,-0E0,2.1084292E-4],"categories":[],"categories_nodes":[],"categories_segments":[],"categories_sizes":[],"default_left":[0,0,0,0,0,0,0,0,0,0,0,0,0],"id":84,"left_children":[1,3,5,7,9,-1,11,-1,-1,-1,-1,-1,-1],"loss_changes":[2.3345481E-5,1.4924079E-4,4.4617867E-5,4.755944E-4,4.8313092E-4,0E0,3.0487296E-5,0E0,0E0,0E0,0E0,0E0,0E0],"parents":[2147483647,0,0,1,1,2,2,3,3,4,4,6,6],"right_children":[2,4,6,8,10,-1,12,-1,-1,-1,-1,-1,-1],"split_conditions":[4.4749328E-1,3.55311E-1,3E0,3.3639678E-1,4.6227413E-1,-0E0,3.4069434E-1,-1.1277248E-5,7.249911E-4,-3.7355893E-4,-0E0,-0E0,2.1084292E-4],"split_indices":[3,3,0,3,7,0,13,0,0,0,0,0,0],"split_type":[0,0,0,0,0,0,0,0,0,0,0,0,0],"sum_hessian":[2.88E2,2.6E2,2.8E1,2.07E2,5.3E1,7E0,2.1E1,1.99E2,8E0,4.5E1,8E0,2E0,1.9E1],"tree_param":{"num_deleted":"0","num_feature":"14","num_nodes":"13","size_leaf_vector":"1"}},{"base_weights":[-0E0,-6.89914E-4,4.5452518E-5,-1.1538668E-3,-0E0,5.3538673E-4,-0E0,-1.5303076E-4,-0E0,-0E0,3.0193652E-4,-4.8272102E-4,1.0022214E-5],"categories":[],"categories_nodes":[],"categories_segments":[],"categories_sizes":[],"default_left":[0,0,0,0,0,0,0,0,0,0,0,0,0],"id":85,"left_children":[1,3,5,7,-1,9,11,-1,-1,-1,-1,-1,-1],"loss_changes":[2.2399228E-5,2.6035568E-5,4.2491756E-5,1.9982686E-5,0E0,1.4845203E-4,3.736349E-4,0E0,0E0,0E0,0E0,0E0,0E0],"parents":[2147483647,0,0,1,1,2,2,3,3,5,5,6,6],"right_children":[2,4,6,8,-1,10,12,-1,-1,-1,-1,-1,-1],"split_conditions":[5.1915642E-2,1.1E1,3.122532E-1,5.341384E-2,-0E0,2.532119E-1,3.49938E-1,-1.5303076E-4,-0E0,-0E0,3.0193652E-4,-4.8272102E-4,1.0022214E-5],"split_indices":[10,0,6,4,0,4,6,0,0,0,0,0,0],"split_type":[0,0,0,0,0,0,0,0,0,0,0,0,0],"sum_hessian":[2.88E2,4.5E1,2.43E2,3.5E1,1E1,1.49E2,9.4E1,2.8E1,7E0,1.29E2,2E1,1.5E1,7.9E1],"tree_param":{"num_deleted":"0","num_feature":"14","num_nodes":"13","size_leaf_vector":"1"}},{"base_weights":[-0E0,-1.5818278E-4,6.090806E-4,-0E0,-1.5179325E-3,3.9943736E-3,-0E0,-6.0284756E-6,2.7318145E-4,-3.5622207E-4,-0E0,-0E0,4.8472124E-4,-6.3705136E-4,-0E0],"categories":[],"categories_nodes":[],"categories_segments":[],"categories_sizes":[],"default_left":[0,0,0,0,0,0,0,0,0,0,0,0,0,0,0],"id":86,"left_children":[1,3,5,7,9,11,13,-1,-1,-1,-1,-1,-1,-1,-1],"loss_changes":[2.0748656E-5,1.2505431E-4,3.2058728E-4,1.5735503E-4,4.269995E-4,6.436749E-5,2.0291719E-4,0E0,0E0,0E0,0E0,0E0,0E0,0E0,0E0],"parents":[2147483647,0,0,1,1,2,2,3,3,4,4,5,5,6,6],"right_children":[2,4,6,8,10,12,14,-1,-1,-1,-1,-1,-1,-1,-1],"split_conditions":[4.327494E-1,3.122532E-1,4.4749328E-1,2.532119E-1,4.4125012E-1,4.127351E-1,4.3706748E-1,-6.0284756E-6,2.7318145E-4,-3.5622207E-4,-0E0,-0E0,4.8472124E-4,-6.3705136E-4,-0E0],"split_indices":[4,6,2,4,2,5,3,0,0,0,0,0,0,0,0],"split_type":[0,0,0,0,0,0,0,0,0,0,0,0,0,0,0],"sum_hessian":[2.88E2,2.5E2,3.8E1,1.94E2,5.6E1,2E1,1.8E1,1.74E2,2E1,4.3E1,1.3E1,4E0,1.6E1,4E0,1.4E1],"tree_param":{"num_deleted":"0","num_feature":"14","num_nodes":"15","size_leaf_vector":"1"}},{"base_weights":[-0E0,-1.93406E-4,3.942082E-4,-0E0,-2.2068617E-3,4.666317E-3,-0E0,-1.3998685E-5,1.7250438E-4,-6.446202E-4,-0E0,-0E0,6.1060226E-4,-1.3769012E-4,6.325919E-5],"categories":[],"categories_nodes":[],"categories_segments":[],"categories_sizes":[],"default_left":[0,0,0,0,0,0,0,0,0,0,0,0,0,0,0],"id":87,"left_children":[1,3,5,7,9,11,13,-1,-1,-1,-1,-1,-1,-1,-1],"loss_changes":[2.0051255E-5,1.235664E-4,3.3627098E-4,7.461282E-5,6.16467E-4,1.7357696E-4,8.8429784E-5,0E0,0E0,0E0,0E0,0E0,0E0,0E0,0E0],"parents":[2147483647,0,0,1,1,2,2,3,3,4,4,5,5,6,6],"right_children":[2,4,6,8,10,12,14,-1,-1,-1,-1,-1,-1,-1,-1],"split_conditions":[3.49938E-1,2.6823083E-1,3.94297E-1,2.1161945E-1,3.3639678E-1,3.3639678E-1,4.524435E-1,-1.3998685E-5,1.7250438E-4,-6.446202E-4,-0E0,-0E0,6.1060226E-4,-1.3769012E-4,6.325919E-5],"split_indices":[9,7,9,8,13,3,7,0,0,0,0,0,0,0,0],"split_type":[0,0,0,0,0,0,0,0,0,0,0,0,0,0,0],"sum_hessian":[2.88E2,2.11E2,7.7E1,1.85E2,2.6E1,1.5E1,6.2E1,1.62E2,2.3E1,1.7E1,9E0,2E0,1.3E1,4.1E1,2.1E1],"tree_param":{"num_deleted":"0","num_feature":"14","num_nodes":"15","size_leaf_vector":"1"}},{"base_weights":[-0E0,-3.8558317E-4,1.698723E-4,-5.870941E-4,-0E0,7.577973E-4,-0E0,-7.07018E-5,-0E0,-0E0,3.0042228E-4,-3.0722035E-4,-0E0],"categories":[],"categories_nodes":[],"categories_segments":[],"categories_sizes":[],"default_left":[0,0,0,0,0,0,0,0,0,0,0,0,0],"id":88,"left_children":[1,3,5,7,-1,9,11,-1,-1,-1,-1,-1,-1],"loss_changes":[1.999074E-5,1.7289098E-5,7.5975135E-5,1.2778302E-5,0E0,1.8019084E-4,1.698918E-4,0E0,0E0,0E0,0E0,0E0,0E0],"parents":[2147483647,0,0,1,1,2,2,3,3,5,5,6,6],"right_children":[2,4,6,8,-1,10,12,-1,-1,-1,-1,-1,-1],"split_conditions":[2.002E3,9.1303885E-2,4.034791E-1,8.426851E-2,-0E0,3.3639678E-1,4.2642823E-1,-7.07018E-5,-0E0,-0E0,3.0042228E-4,-3.0722035E-4,-0E0],"split_indices":[1,2,12,3,0,13,13,0,0,0,0,0,0],"split_type":[0,0,0,0,0,0,0,0,0,0,0,0,0],"sum_hessian":[2.88E2,9.6E1,1.92E2,9.1E1,5E0,1.41E2,5.1E1,8.8E1,3E0,1.13E2,2.8E1,1.7E1,3.4E1],"tree_param":{"num_deleted":"0","num_feature":"14","num_nodes":"13","size_leaf_vector":"1"}},{"base_weights":[-0E0,-3.214421E-4,1.533518E-4,-5.194671E-4,-0E0,7.2831137E-4,-0E0,-6.371114E-5,-0E0,-0E0,3.2719044E-4,-1.6320222E-4,-0E0],"categories":[],"categories_nodes":[],"categories_segments":[],"categories_sizes":[],"default_left":[0,0,0,0,0,0,0,0,0,0,0,0,0],"id":89,"left_children":[1,3,5,7,-1,9,11,-1,-1,-1,-1,-1,-1],"loss_changes":[1.4561263E-5,1.4803314E-5,6.600945E-5,1.1300232E-5,0E0,2.5061256E-4,1.0920336E-4,0E0,0E0,0E0,0E0,0E0,0E0],"parents":[2147483647,0,0,1,1,2,2,3,3,5,5,6,6],"right_children":[2,4,6,8,-1,10,12,-1,-1,-1,-1,-1,-1],"split_conditions":[2.002E3,9.1303885E-2,2.013E3,8.426851E-2,-0E0,3.377308E-1,9E0,-6.371114E-5,-0E0,-0E0,3.2719044E-4,-1.6320222E-4,-0E0],"split_indices":[1,2,1,3,0,6,0,0,0,0,0,0,0],"split_type":[0,0,0,0,0,0,0,0,0,0,0,0,0],"sum_hessian":[2.88E2,9.6E1,1.92E2,9.1E1,5E0,1.32E2,6E1,8.8E1,3E0,1.03E2,2.9E1,4E1,2E1],"tree_param":{"num_deleted":"0","num_feature":"14","num_nodes":"13","size_leaf_vector":"1"}},{"base_weights":[-0E0,-7.037866E-4,6.460559E-5,-1.07231994E-4,-0E0,4.0060337E-4,-0E0,-0E0,2.6548043E-4,-1.6396987E-4,-0E0],"categories":[],"categories_nodes":[],"categories_segments":[],"categories_sizes":[],"default_left":[0,0,0,0,0,0,0,0,0,0,0],"id":90,"left_children":[1,3,5,-1,-1,7,9,-1,-1,-1,-1],"loss_changes":[1.2506685E-5,5.8557935E-6,3.788296E-5,0E0,0E0,1.9358614E-4,4.5706405E-5,0E0,0E0,0E0,0E0],"parents":[2147483647,0,0,1,1,2,2,5,5,6,6],"right_children":[2,4,6,-1,-1,8,10,-1,-1,-1,-1],"split_conditions":[3.7512418E-2,2.30271E-2,4.4749328E-1,-1.07231994E-4,-0E0,3.999245E-1,4.679673E-1,-0E0,2.6548043E-4,-1.6396987E-4,-0E0],"split_indices":[5,12,10,0,0,11,4,0,0,0,0],"split_type":[0,0,0,0,0,0,0,0,0,0,0],"sum_hessian":[2.88E2,2.2E1,2.66E2,1.4E1,8E0,2.42E2,2.4E1,2.1E2,3.2E1,1.6E1,8E0],"tree_param":{"num_deleted":"0","num_feature":"14","num_nodes":"11","size_leaf_vector":"1"}},{"base_weights":[-0E0,-4.547831E-4,7.874047E-5,-9.815986E-4,-0E0,-0E0,7.818853E-4,-1.0357562E-4,-0E0,-0E0,-1.2334726E-4,4.3238045E-4,-0E0],"categories":[],"categories_nodes":[],"categories_segments":[],"categories_sizes":[],"default_left":[0,0,0,0,0,0,0,0,0,0,0,0,0],"id":91,"left_children":[1,3,5,7,-1,9,11,-1,-1,-1,-1,-1,-1],"loss_changes":[1.1628771E-5,2.937042E-5,5.4138145E-5,3.4066616E-6,0E0,4.7165093E-5,3.930545E-4,0E0,0E0,0E0,0E0,0E0,0E0],"parents":[2147483647,0,0,1,1,2,2,3,3,5,5,6,6],"right_children":[2,4,6,8,-1,10,12,-1,-1,-1,-1,-1,-1],"split_conditions":[3E0,4.140773E-1,2.009E3,4.6378466E-1,-0E0,1.1E1,3.55311E-1,-1.0357562E-4,-0E0,-0E0,-1.2334726E-4,4.3238045E-4,-0E0],"split_indices":[0,8,1,3,0,0,3,0,0,0,0,0,0],"split_type":[0,0,0,0,0,0,0,0,0,0,0,0,0],"sum_hessian":[2.88E2,4.8E1,2.4E2,4E1,8E0,1.5E2,9E1,3.9E1,1E0,1.2E2,3E1,2.3E1,6.7E1],"tree_param":{"num_deleted":"0","num_feature":"14","num_nodes":"13","size_leaf_vector":"1"}},{"base_weights":[-0E0,-6.142788E-4,3.2268486E-5,-9.350746E-5,-0E0,3.9041849E-4,-0E0,-0E0,2.581222E-4,-2.8344506E-4,-0E0],"categories":[],"categories_nodes":[],"categories_segments":[],"categories_sizes":[],"default_left":[0,0,0,0,0,0,0,0,0,0,0],"id":92,"left_children":[1,3,5,-1,-1,7,9,-1,-1,-1,-1],"loss_changes":[8.9567975E-6,4.4366843E-6,3.264613E-5,0E0,0E0,1.6029437E-4,1.4461396E-4,0E0,0E0,0E0,0E0],"parents":[2147483647,0,0,1,1,2,2,5,5,6,6],"right_children":[2,4,6,-1,-1,8,10,-1,-1,-1,-1],"split_conditions":[3.7512418E-2,2.30271E-2,4.034791E-1,-9.350746E-5,-0E0,3.3639678E-1,4.2642823E-1,-0E0,2.581222E-4,-2.8344506E-4,-0E0],"split_indices":[5,12,12,0,0,13,13,0,0,0,0],"split_type":[0,0,0,0,0,0,0,0,0,0,0],"sum_hessian":[2.88E2,2.2E1,2.66E2,1.4E1,8E0,2.15E2,5.1E1,1.87E2,2.8E1,1.7E1,3.4E1],"tree_param":{"num_deleted":"0","num_feature":"14","num_nodes":"11","size_leaf_vector":"1"}},{"base_weights":[-0E0,-5.573608E-4,2.3247312E-5,-8.2096097E-4,-0E0,3.9949213E-4,-0E0,-9.717272E-5,-0E0,-0E0,4.3629544E-4,-3.2370476E-4,-0E0],"categories":[],"categories_nodes":[],"categories_segments":[],"categories_sizes":[],"default_left":[0,0,0,0,0,0,0,0,0,0,0,0,0],"id":93,"left_children":[1,3,5,7,-1,9,11,-1,-1,-1,-1,-1,-1],"loss_changes":[7.2892726E-6,4.312631E-6,3.1136122E-5,3.6504525E-6,0E0,2.9232088E-4,1.6765564E-4,0E0,0E0,0E0,0E0,0E0,0E0],"parents":[2147483647,0,0,1,1,2,2,3,3,5,5,6,6],"right_children":[2,4,6,8,-1,10,12,-1,-1,-1,-1,-1,-1],"split_conditions":[3.7512418E-2,8E0,3.5721147E-1,5.5306084E-2,-0E0,3.377308E-1,3.946664E-1,-9.717272E-5,-0E0,-0E0,